<?xml version="1.0"?>
<opencv_storage>
<opencv_ml_svm>
  <format>3</format>
  <svmType>C_SVC</svmType>
  <kernel>
    <type>LINEAR</type></kernel>
  <C>1.</C>
  <term_criteria><epsilon>1.1920928955078125e-07</epsilon>
    <iterations>1000</iterations></term_criteria>
  <var_count>4752</var_count>
  <class_count>2</class_count>
  <class_labels type_id="opencv-matrix">
    <rows>2</rows>
    <cols>1</cols>
    <dt>i</dt>
    <data>
      0 1</data></class_labels>
  <sv_total>1</sv_total>
  <support_vectors>
    <_>
      6.77769958e-06 6.01991815e-06 1.78242794e-06 -5.48450907e-06
      -1.01188898e-05 -8.99324641e-06 -8.22252605e-06 -9.32212333e-06
      -7.20636808e-06 -6.11986661e-06 -3.63081404e-06 -4.79800201e-06
      -9.21401443e-06 -1.20375789e-05 -1.21779494e-05 -1.02741160e-05
      -7.06543051e-06 -7.01708586e-06 -8.43588987e-06 -1.24117250e-05
      -2.01500297e-05 -2.85567949e-05 -3.49641305e-05 -3.66597924e-05
      -3.31551055e-05 -2.74591857e-05 -1.85589288e-05 -9.13541044e-06
      -5.62314017e-06 -3.52708753e-06 -3.75102150e-06 -1.37578013e-06
      -3.44180444e-06 -5.11238659e-06 -9.22772142e-06 -1.10522387e-05
      -1.60065756e-05 -1.75886071e-05 -1.48602448e-05 -1.27204339e-05
      -9.75405783e-06 -6.41834731e-06 -6.00873818e-06 -5.65550272e-06
      -4.43814497e-06 9.74564387e-07 7.09025471e-06 9.83476002e-06
      9.70522069e-06 8.69840551e-06 4.31035596e-06 -2.26270845e-06
      -7.28925534e-06 -1.03995380e-05 -1.11086656e-05 -3.88169428e-06
      -3.56978967e-06 1.99703732e-06 2.83393911e-06 5.23216795e-06
      6.33293985e-06 7.00532382e-06 3.62251421e-06 2.83123518e-06
      3.62957098e-06 3.04117430e-06 6.82176733e-06 -2.10478493e-06
      -6.35644437e-06 -4.01789657e-06 4.67664177e-06 5.02555440e-06
      5.18086290e-06 3.05738308e-06 3.34427909e-07 1.55346015e-06
      4.46310150e-06 8.05914897e-06 1.31556999e-05 6.65519565e-06
      9.20841740e-06 9.01558997e-06 1.89080711e-05 1.77854417e-05
      1.55064899e-05 1.25221268e-05 1.78301452e-05 2.07526173e-05
      2.08025212e-05 1.96157762e-05 1.44429614e-05 1.34659531e-05
      1.19254191e-05 1.27892017e-05 1.02492750e-05 9.29013822e-06
      8.84092242e-06 4.80434574e-06 7.15922852e-07 -4.01425768e-06
      -4.16228431e-06 -3.24595749e-06 -6.62147067e-06 -8.26736687e-06
      -1.43472889e-05 -1.67508188e-05 -1.47698247e-05 -9.72703765e-06
      3.11905524e-07 1.11456120e-05 1.47800674e-05 1.24851631e-05
      9.15610690e-06 -7.29196529e-07 -1.00817742e-05 -2.03973959e-05
      -2.51008260e-05 -2.03176023e-05 -1.56255755e-05 -8.30038152e-06
      -5.97988128e-06 -6.28045382e-06 -3.52724965e-06 -1.52818529e-06
      2.22130598e-06 1.61533796e-06 3.01066348e-06 -2.47388130e-06
      -6.01336160e-06 -1.32249543e-05 -1.96965102e-05 -2.61657260e-05
      -3.13552227e-05 -3.25932378e-05 -2.75709826e-05 -2.44511084e-05
      -1.97843638e-05 -1.78592109e-05 -1.78045539e-05 -1.40696711e-05
      -8.18645094e-06 4.49446543e-06 4.41738885e-05 5.14212370e-05
      5.24957522e-06 4.65634821e-06 -2.35006866e-07 -8.06030584e-06
      -1.17566387e-05 -9.66192329e-06 -5.78014578e-06 -5.88783178e-06
      -4.03229478e-06 -3.95079633e-06 -1.86918214e-06 -1.92528773e-06
      -3.00619104e-06 -4.90867478e-06 -7.77325295e-06 -6.59558827e-06
      -1.54070085e-06 -1.15116528e-07 -3.99720057e-06 -8.20226251e-06
      -1.72610853e-05 -2.46180552e-05 -2.90899097e-05 -3.10896321e-05
      -3.03860652e-05 -2.55623036e-05 -1.73391709e-05 -7.52426513e-06
      -3.44443379e-06 -7.89651722e-07 -3.34179987e-07 -9.28240297e-07
      -1.43087516e-06 -4.36065193e-06 -9.17540729e-06 -1.40401526e-05
      -1.85162044e-05 -2.01805997e-05 -1.89150687e-05 -1.83666452e-05
      -1.54575719e-05 -1.19879496e-05 -1.29691298e-05 -1.04602195e-05
      -9.95194478e-06 -3.78940058e-06 4.36036862e-06 9.18130900e-06
      1.10277997e-05 9.01423391e-06 4.54150950e-06 -4.11314113e-06
      -1.11671716e-05 -1.39188651e-05 -1.27826961e-05 -4.69000770e-06
      -4.05621677e-06 6.48255025e-07 3.91080903e-06 1.08932991e-05
      1.02509002e-05 7.88451234e-06 2.88105798e-06 7.11889868e-07
      -3.37741568e-07 -2.02639640e-07 4.39978749e-06 -1.71072782e-06
      -1.11751706e-05 -9.92140940e-06 -5.76860293e-06 -4.77270396e-06
      -6.93640777e-06 -1.21037529e-05 -1.70686817e-05 -1.58818348e-05
      -1.09923094e-05 -4.90163302e-06 -4.00260262e-07 -6.50479296e-06
      -1.69768259e-06 -2.59698641e-06 4.96363327e-06 4.86812587e-06
      3.52965367e-06 3.01509317e-06 7.61581941e-06 1.20624336e-05
      1.74992292e-05 1.71772099e-05 1.48889476e-05 1.56547121e-05
      1.40552092e-05 1.12526868e-05 9.29774797e-06 5.53550581e-06
      3.26069653e-06 1.57484408e-06 -1.33244089e-06 -4.79007576e-06
      -5.55253382e-06 -6.25695247e-06 -7.58962369e-06 -9.31251452e-06
      -1.86682810e-05 -1.81744927e-05 -1.76886042e-05 -9.11202278e-06
      4.09734241e-07 1.15376015e-05 1.31503757e-05 1.20989289e-05
      8.95301127e-06 -1.82295355e-06 -1.19218212e-05 -2.05881988e-05
      -2.00904742e-05 -1.05943000e-05 -7.56848658e-06 -8.09397534e-06
      -9.27796009e-06 -9.85633687e-06 -5.17119406e-06 -2.79696428e-06
      1.06856476e-06 7.92723938e-07 2.90780918e-06 2.11322890e-06
      3.29239271e-07 -6.51265191e-06 -1.39814720e-05 -2.37241475e-05
      -2.93622343e-05 -2.87089551e-05 -2.21103273e-05 -1.79409381e-05
      -1.36647850e-05 -1.69325631e-05 -1.96844867e-05 -1.72280415e-05
      -9.84189683e-06 3.12897964e-06 4.15751674e-05 4.73026266e-05
      -1.68786107e-06 -3.46955812e-06 -8.56335464e-06 -1.29341925e-05
      -9.63276489e-06 -3.35350842e-06 4.47859748e-06 5.77126320e-06
      1.00368679e-05 9.89223463e-06 1.25760907e-05 1.10171704e-05
      8.68424831e-06 1.41340524e-06 -1.89353261e-06 -1.94557788e-06
      5.49333130e-08 3.07951109e-06 3.25252245e-06 4.38827996e-09
      -6.95625249e-06 -1.63259101e-05 -1.92622247e-05 -2.49329751e-05
      -2.61237346e-05 -2.80458353e-05 -2.61235200e-05 -1.72980162e-05
      -1.18775361e-05 -1.22142728e-05 -1.18299358e-05 -1.06712441e-05
      -1.03337270e-05 -1.03201855e-05 -1.44072746e-05 -1.70639178e-05
      -2.03803174e-05 -2.40873978e-05 -2.49181558e-05 -2.59429653e-05
      -2.30114565e-05 -2.25684871e-05 -2.56586391e-05 -2.47313801e-05
      -2.75417624e-05 -2.15575492e-05 -1.20262303e-05 -4.79923665e-06
      -5.20279445e-06 -1.08754866e-05 -1.69236064e-05 -2.37064105e-05
      -3.12345292e-05 -3.26594854e-05 -3.13966193e-05 -2.62331614e-05
      -1.82256790e-05 -1.07045698e-05 -6.55014537e-06 -7.82067582e-06
      -1.42236977e-05 -1.83960492e-05 -2.21128339e-05 -2.13002259e-05
      -2.04770076e-05 -9.69193115e-06 -4.05881110e-06 -6.66625647e-06
      -7.78649883e-06 -1.01463429e-05 -9.81478934e-06 -1.06237230e-05
      -1.40802003e-05 -2.16777898e-05 -3.06151196e-05 -2.95872796e-05
      -1.86964899e-05 -9.10381095e-06 -5.86225542e-06 -8.42047939e-06
      -1.15021621e-05 -1.38597889e-05 -1.25338956e-05 -1.03363491e-05
      -8.16727152e-06 -6.12999384e-06 -2.74828676e-06 8.75356136e-07
      4.02161277e-06 3.10065252e-06 3.79078256e-06 6.80143694e-06
      7.86948658e-06 7.23135963e-06 9.56330314e-06 6.59971511e-06
      4.57218493e-06 -3.87655859e-07 -6.68594294e-06 -1.24903781e-05
      -1.41934297e-05 -1.11896816e-05 -8.21819140e-06 -8.76387730e-06
      -1.72651235e-05 -1.87060359e-05 -1.59799129e-05 -5.47965283e-06
      4.69474526e-06 1.50211981e-05 2.11257629e-05 2.44450948e-05
      2.09612281e-05 7.68661266e-06 -3.67937878e-06 -1.29738191e-05
      -7.12608153e-06 4.24493783e-06 1.02440135e-05 9.72595808e-06
      2.72250901e-07 -1.21746757e-06 2.62638082e-06 5.54013423e-06
      1.05845993e-05 1.17031168e-05 1.45592830e-05 1.52343646e-05
      1.09788552e-05 3.52366851e-06 3.32158038e-07 -1.03943182e-06
      -6.98744043e-06 -6.03747321e-06 -2.14207967e-06 -1.19968627e-06
      -2.35483913e-06 -6.72142824e-06 -1.33193762e-05 -1.40071652e-05
      -9.95626306e-06 -2.58325645e-06 3.07392584e-05 3.24368157e-05
      -9.43365285e-06 -1.18109911e-05 -1.62980778e-05 -1.75484656e-05
      -1.23362661e-05 -3.21757580e-06 7.03252590e-06 1.03772991e-05
      1.80174302e-05 1.84124619e-05 1.71707306e-05 2.08880811e-05
      1.44243231e-05 2.23921188e-06 -1.76095284e-06 1.44163914e-06
      1.35895073e-06 7.21826780e-07 6.66132323e-08 -1.59813749e-06
      -3.82014287e-06 -1.08037957e-05 -1.11194531e-05 -1.50934256e-05
      -1.49071775e-05 -1.54622667e-05 -1.95033172e-05 -1.49722891e-05
      -1.12966509e-05 -1.19205570e-05 -6.25813618e-06 4.62457706e-07
      1.49765674e-06 -1.80665438e-06 -7.80198570e-06 -1.16792171e-05
      -1.23872560e-05 -1.48741647e-05 -2.12185605e-05 -2.48988126e-05
      -2.16998687e-05 -1.97835598e-05 -2.10718990e-05 -2.49808490e-05
      -2.74029444e-05 -1.81041105e-05 -7.26775215e-06 1.44114063e-06
      6.31733928e-06 3.81066980e-06 -6.26725250e-06 -1.31371080e-05
      -2.40835416e-05 -2.78428379e-05 -2.41798334e-05 -1.59473439e-05
      -2.53394751e-06 8.38411052e-06 8.37632433e-06 -6.01366253e-07
      -1.25368742e-05 -1.92920252e-05 -2.87194252e-05 -2.92890145e-05
      -2.20040092e-05 -5.49453580e-06 5.75436343e-06 9.08718357e-06
      5.86300666e-06 3.36261087e-06 4.05881195e-07 -5.11429690e-08
      -1.09954988e-06 -3.97197573e-06 -1.23480186e-05 -1.53099172e-05
      -1.86630859e-05 -1.51971553e-05 -1.25719207e-05 -1.59583014e-05
      -1.88251197e-05 -2.77926865e-05 -3.08283998e-05 -2.51314741e-05
      -2.08000456e-05 -1.50604710e-05 -9.62583545e-06 -5.41713098e-06
      2.35789958e-06 3.80713277e-06 9.37458117e-06 1.47536330e-05
      1.85404260e-05 2.23997249e-05 2.33350256e-05 1.70334370e-05
      1.26141613e-05 4.00104227e-06 -2.04783055e-06 -7.76022353e-06
      -7.39390998e-06 -6.69169367e-06 -4.59264220e-06 2.04708340e-06
      -6.93226730e-06 -6.39896916e-06 -1.88658612e-06 6.88193586e-06
      1.71297561e-05 2.49091099e-05 3.01981854e-05 3.38339887e-05
      2.82378369e-05 1.99612332e-05 1.33614867e-05 1.35373102e-05
      2.24924952e-05 2.68283038e-05 3.05607682e-05 2.15130749e-05
      9.82737038e-06 3.46791035e-06 9.48203251e-06 1.54297777e-05
      1.59073297e-05 1.57509767e-05 1.96804740e-05 2.42545830e-05
      1.96178444e-05 1.92532061e-05 1.80376592e-05 1.97915251e-05
      1.63543646e-05 1.80681436e-05 1.82234908e-05 1.47264218e-05
      1.15699713e-05 1.15670207e-06 -8.41643123e-06 -1.90280698e-05
      -1.61573444e-05 -8.03379680e-06 2.33668943e-05 2.58367781e-05
      -1.38155237e-05 -1.53690526e-05 -1.54069876e-05 -1.79228664e-05
      -1.56790211e-05 -6.76652553e-06 4.59026751e-06 1.01717314e-05
      1.49348543e-05 1.44805526e-05 2.00840404e-05 1.81242212e-05
      1.06794341e-05 -5.66321705e-06 -1.10968440e-05 -5.06988772e-06
      -2.73705496e-06 -5.38993709e-06 -6.67833365e-06 -7.98711426e-06
      -6.14271266e-06 -8.85562713e-06 -1.13414603e-06 -3.58172815e-06
      -3.71690544e-06 -2.10554435e-06 -7.13499458e-06 -1.29080609e-05
      -1.19924325e-05 -7.78816957e-06 3.41910481e-06 9.39298843e-06
      1.04569590e-05 9.88589545e-06 7.04164813e-06 2.99096769e-06
      3.67759640e-06 1.41877445e-06 -5.97106464e-06 -1.14903441e-05
      -1.06026710e-05 -7.01296813e-06 -8.46074454e-06 -1.40400871e-05
      -1.53470319e-05 -5.13799796e-06 7.08977268e-06 1.64951689e-05
      2.37255572e-05 2.11161805e-05 1.07507149e-05 -3.08124504e-06
      -1.58921921e-05 -1.94470558e-05 -1.52997709e-05 -3.84186342e-06
      7.86624423e-06 1.87251371e-05 1.82340136e-05 4.48917581e-06
      -6.65770995e-06 -1.98899234e-05 -2.86409922e-05 -2.65253202e-05
      -1.38453670e-05 6.67426639e-06 1.75808527e-05 2.36083179e-05
      2.43753457e-05 2.55396862e-05 2.75178700e-05 2.78194184e-05
      2.42106235e-05 2.35536299e-05 1.73990466e-05 6.31967214e-06
      -3.04245236e-06 -7.49137234e-06 -6.83877079e-06 -1.49589096e-05
      -2.32355960e-05 -2.94822075e-05 -3.20064573e-05 -2.96606868e-05
      -2.71211829e-05 -2.09640984e-05 -1.13949536e-05 -2.81643429e-06
      9.36671313e-06 8.82006225e-06 1.46137927e-05 2.66756269e-05
      3.67871580e-05 3.98366028e-05 3.72873910e-05 2.96128965e-05
      2.14526553e-05 1.31926354e-05 1.07507976e-05 2.29111447e-06
      -8.01912563e-07 9.15431485e-07 4.70007171e-06 1.28352367e-05
      7.26713506e-06 8.21030335e-06 1.55688285e-05 2.43671184e-05
      3.39201106e-05 3.78590266e-05 4.37464223e-05 4.11614237e-05
      3.37548117e-05 3.04139321e-05 3.40929073e-05 3.72691356e-05
      3.37515339e-05 2.98853920e-05 3.20381878e-05 2.59984045e-05
      1.81892083e-05 1.15854618e-05 1.49164252e-05 1.73229691e-05
      1.60720738e-05 1.85750541e-05 2.47323278e-05 2.39704896e-05
      2.66981460e-05 2.66779007e-05 2.64942464e-05 2.73955284e-05
      2.55843061e-05 2.85817041e-05 2.66400039e-05 2.02314095e-05
      7.61841329e-06 -4.04725733e-06 -1.50466940e-05 -2.19460744e-05
      -2.28803565e-05 -1.90415558e-05 1.73400313e-05 2.13197964e-05
      -1.52629000e-05 -1.64516605e-05 -1.44559754e-05 -1.68097813e-05
      -1.66479149e-05 -1.11231138e-05 1.82911367e-06 7.26892085e-06
      1.20991854e-05 1.16148112e-05 1.33049316e-05 8.54199880e-06
      -1.76942774e-06 -1.87687547e-05 -2.20733946e-05 -1.35597247e-05
      -1.34258808e-05 -1.45075237e-05 -1.45524809e-05 -1.26091572e-05
      -1.05672752e-05 -5.01858221e-06 4.47017283e-06 2.85342594e-06
      2.69436623e-06 5.27263410e-06 2.63856896e-06 -7.54999019e-06
      -1.49031375e-05 -6.91332207e-06 6.53031839e-06 1.27891399e-05
      1.52851626e-05 1.82881868e-05 1.79390245e-05 1.41515866e-05
      1.66092159e-05 1.30302515e-05 3.29921022e-06 -2.63338234e-06
      -3.06207403e-06 3.00807460e-06 1.05606239e-06 -5.33917728e-06
      -2.71644149e-06 2.42169449e-06 1.10802239e-05 2.22099352e-05
      2.91272481e-05 2.89383170e-05 1.87269343e-05 6.65303151e-06
      -4.60648891e-07 -7.56831560e-06 -3.58296984e-06 7.57868702e-06
      1.98639482e-05 2.83424288e-05 2.70657674e-05 1.69469749e-05
      5.61199022e-06 -1.29340333e-05 -2.09590926e-05 -1.94404274e-05
      -4.37034214e-06 1.38212554e-05 2.83163608e-05 3.55424781e-05
      3.51678755e-05 3.30761904e-05 3.13118289e-05 2.95191112e-05
      2.93948196e-05 3.16199839e-05 3.59597798e-05 1.46161565e-05
      5.46160345e-06 -3.01289379e-06 -4.07946754e-06 -1.45144768e-05
      -2.08382517e-05 -3.31758092e-05 -3.49442234e-05 -3.66563909e-05
      -3.69499685e-05 -3.07737828e-05 -2.04568478e-05 -8.99143834e-06
      1.19801393e-06 1.16039473e-06 1.25840115e-05 2.51327019e-05
      3.38376158e-05 4.10170505e-05 3.93602641e-05 3.25482833e-05
      2.39550955e-05 1.87549722e-05 1.63228106e-05 8.08750792e-06
      3.04333025e-06 6.09258541e-06 9.92324203e-06 1.55653343e-05
      1.13758479e-05 1.19973447e-05 1.80413899e-05 2.71287663e-05
      3.28500137e-05 3.59448059e-05 3.64350672e-05 2.51643232e-05
      2.42967326e-05 3.08011186e-05 3.18422317e-05 2.69407064e-05
      2.26679422e-05 2.00727336e-05 2.27733544e-05 1.90370611e-05
      1.45587583e-05 1.20629038e-05 1.27265957e-05 1.18372254e-05
      7.39979896e-06 1.25244451e-05 2.40076806e-05 2.33505561e-05
      2.84206726e-05 2.99511958e-05 3.07225528e-05 2.88229021e-05
      2.74803369e-05 2.75725579e-05 1.97849477e-05 1.33679750e-05
      3.05549906e-06 -5.49570677e-06 -1.49378084e-05 -2.56363546e-05
      -3.01754462e-05 -2.65325489e-05 9.91132583e-06 1.40855454e-05
      -1.36337867e-05 -1.44710930e-05 -1.12483804e-05 -1.05975869e-05
      -1.24292455e-05 -9.86112809e-06 -4.01426576e-07 6.31109833e-06
      9.09685969e-06 7.32311992e-06 6.24702807e-06 2.39981432e-06
      -7.84656459e-06 -2.81875982e-05 -3.19221399e-05 -2.41091511e-05
      -2.30705882e-05 -2.76295923e-05 -2.41107045e-05 -1.75990990e-05
      -1.34178017e-05 -5.13478108e-06 5.35002346e-06 1.08118629e-05
      8.75399019e-06 7.55062729e-06 -1.80475899e-06 -6.77743537e-06
      -1.25895504e-05 -6.36067034e-06 8.88074283e-06 1.65772526e-05
      1.70608782e-05 2.03017389e-05 2.25153981e-05 2.05391207e-05
      2.13341191e-05 1.69600589e-05 4.08294545e-06 -3.20083700e-06
      -5.11132930e-06 2.74481908e-06 4.01884108e-06 7.70002202e-07
      3.58140028e-06 4.04529192e-06 9.46599539e-06 2.31496633e-05
      3.14842910e-05 3.17147533e-05 2.24803389e-05 1.02051508e-05
      3.92097854e-06 -2.31932995e-06 4.23876736e-06 1.35031887e-05
      2.22252838e-05 2.38758257e-05 1.87319038e-05 1.31430807e-05
      1.16513702e-05 -5.42298403e-06 -1.10120554e-05 -8.18677108e-06
      6.43302383e-06 2.08176607e-05 3.28782226e-05 3.19472601e-05
      3.32484778e-05 2.79946489e-05 2.74232607e-05 2.31452941e-05
      2.47297576e-05 2.70725650e-05 2.39080418e-05 5.84226382e-06
      -8.11403254e-07 -5.09622350e-06 -3.11736130e-06 -1.75377863e-05
      -2.42614842e-05 -3.36448247e-05 -2.76994324e-05 -2.83032732e-05
      -2.92439727e-05 -2.86717695e-05 -2.06939512e-05 -1.29846085e-05
      -3.29692534e-06 -3.94660583e-06 7.83953237e-06 1.72398468e-05
      2.35474072e-05 2.87556304e-05 2.50431076e-05 2.12371415e-05
      2.29003817e-05 1.40233988e-05 1.58394432e-05 8.53313122e-06
      4.21921641e-06 7.65392633e-06 1.18413391e-05 1.79463277e-05
      1.26037903e-05 1.36146518e-05 1.75966197e-05 2.69133307e-05
      3.22306769e-05 2.83139434e-05 2.15285236e-05 8.35757692e-06
      1.61624812e-05 2.61785735e-05 2.43735103e-05 1.60420186e-05
      6.77119215e-06 3.67846906e-06 3.86922056e-06 6.43991598e-06
      8.52784524e-06 1.25743163e-05 9.59796034e-06 7.54261873e-06
      4.99686166e-07 3.42482463e-06 1.68480437e-05 2.03739819e-05
      2.11932729e-05 2.27491491e-05 2.39899055e-05 2.36698597e-05
      1.56804563e-05 1.27814974e-05 6.81735901e-06 4.89385002e-06
      1.34074958e-06 -5.19893365e-06 -1.71796073e-05 -2.82843794e-05
      -3.48118083e-05 -3.03210454e-05 7.77833884e-06 1.05046938e-05
      -6.71793089e-07 -3.27837802e-06 -1.86723616e-06 1.44574017e-06
      1.39487543e-06 2.90154685e-06 9.58065448e-06 1.46086759e-05
      1.40181928e-05 5.58910460e-06 3.02076614e-06 -2.26565112e-06
      -1.19393953e-05 -3.21201660e-05 -3.19180508e-05 -2.03773125e-05
      -2.11540355e-05 -2.57002157e-05 -1.90803676e-05 -9.18342812e-06
      -5.80881078e-06 3.57196745e-06 9.42263887e-06 2.03313575e-05
      1.57230934e-05 1.43352963e-05 1.77357936e-06 -9.87369549e-06
      -8.29942837e-06 -9.76549109e-06 3.70270527e-06 1.33731910e-05
      1.62774431e-05 1.82143176e-05 2.06720597e-05 2.24614105e-05
      2.15557266e-05 1.79248964e-05 4.27682608e-06 -6.30541535e-06
      -7.27986617e-06 8.34078492e-07 5.05941944e-06 1.51100608e-06
      1.63285392e-06 -4.27804707e-07 5.79517109e-06 2.21157898e-05
      2.91476481e-05 3.08733288e-05 2.25107506e-05 1.33930807e-05
      1.02568802e-05 7.06670289e-06 1.06368871e-05 1.36831140e-05
      1.84897617e-05 1.97019308e-05 1.61150838e-05 1.47639830e-05
      1.79625640e-05 4.62767321e-06 1.30702404e-06 -2.05612218e-06
      5.81792392e-06 1.13624883e-05 1.67035250e-05 1.95438624e-05
      2.55585674e-05 2.44814964e-05 2.60593897e-05 2.81260036e-05
      2.97929037e-05 2.66935003e-05 1.91619056e-05 2.78165999e-07
      -7.71494433e-06 -1.11341587e-05 -9.44722706e-06 -2.13755957e-05
      -2.60985835e-05 -2.90517164e-05 -1.89488273e-05 -1.68140850e-05
      -1.89494040e-05 -2.21330356e-05 -1.49037551e-05 -1.04517103e-05
      -1.46615741e-06 -2.00083628e-06 8.83291614e-06 1.36442850e-05
      1.64327557e-05 1.60365307e-05 1.08602089e-05 9.39658548e-06
      1.58738712e-05 1.34120164e-05 1.00258594e-05 2.57870056e-06
      -2.53315420e-06 2.00052227e-06 1.07281048e-05 1.43074449e-05
      8.56204133e-06 7.71881969e-06 1.38703053e-05 2.27595556e-05
      2.71692170e-05 1.87170117e-05 5.65582286e-06 1.28147815e-06
      1.09075554e-05 1.42148911e-05 1.63475397e-05 7.29423755e-06
      -6.94676510e-06 -1.19524093e-05 -8.11709197e-06 -1.63187201e-06
      6.31616786e-06 1.54798581e-05 1.10020437e-05 9.12815085e-06
      1.08635038e-06 6.41822506e-09 1.70662570e-05 1.76848789e-05
      1.59693154e-05 1.80287825e-05 1.49657026e-05 1.66781374e-05
      6.84158749e-06 5.80530832e-06 6.49747653e-06 6.82595419e-06
      5.44380737e-06 2.84961686e-07 -1.42845447e-05 -2.36374890e-05
      -3.24142238e-05 -2.64046303e-05 1.07135475e-05 1.43081279e-05
      8.74787747e-06 1.07047654e-05 1.01324249e-05 1.33512149e-05
      1.60160398e-05 1.85428325e-05 2.12365103e-05 2.71381232e-05
      2.43918203e-05 1.39569029e-05 9.18342903e-06 4.64596405e-06
      -5.19504420e-06 -2.34552354e-05 -2.63262227e-05 -1.38534042e-05
      -1.38991145e-05 -1.33659696e-05 -9.01968360e-06 -3.98433212e-06
      -5.33550917e-07 5.73285206e-06 1.51600443e-05 2.24945416e-05
      2.11605438e-05 1.89949878e-05 3.78588174e-06 -6.62104412e-06
      -3.27181897e-06 -9.38063204e-06 -4.23550728e-06 6.18354397e-06
      1.31352017e-05 1.90692408e-05 2.58627388e-05 2.93129306e-05
      3.27978123e-05 2.83041791e-05 9.58939836e-06 5.50700804e-07
      -1.46977868e-06 2.22239646e-06 6.70857389e-06 -2.29783063e-06
      -6.19241064e-06 -7.99639838e-06 5.06930064e-07 1.95573448e-05
      2.37261538e-05 2.33675455e-05 1.95605771e-05 1.53751953e-05
      1.58514540e-05 1.74522356e-05 1.60481741e-05 1.56933966e-05
      1.98046982e-05 1.78419177e-05 1.67801209e-05 1.24297339e-05
      1.22737711e-05 2.21878940e-06 3.02089688e-07 -6.95516860e-07
      -2.04316439e-06 1.24578207e-07 5.14993644e-06 1.26162786e-05
      1.54898098e-05 1.59185183e-05 1.20037548e-05 1.51098939e-05
      1.68431452e-05 1.39562235e-05 1.00514653e-05 -1.00183806e-05
      -1.40853999e-05 -1.85067947e-05 -1.64703615e-05 -2.41507787e-05
      -3.11780714e-05 -2.71404970e-05 -1.61386361e-05 -8.75476417e-06
      -1.31432880e-05 -1.23295677e-05 -6.82554628e-06 -3.83430643e-06
      3.11840222e-06 1.19952551e-06 9.00671785e-06 1.13751312e-05
      6.34144226e-06 1.47555409e-06 -2.82694714e-06 -9.51181676e-08
      3.73182252e-06 4.57458418e-06 2.26967654e-06 -8.42615191e-06
      -1.43999341e-05 -1.01187243e-05 -4.27030182e-06 1.64777953e-06
      -5.25782707e-06 -5.89180490e-06 4.87138868e-06 1.82429576e-05
      2.28345671e-05 9.78142180e-06 -3.37032429e-06 -6.88849832e-06
      4.93544758e-06 1.23092432e-05 1.05069812e-05 -3.31594697e-06
      -2.14468164e-05 -2.98277791e-05 -2.32572183e-05 -1.34555485e-05
      2.36102051e-06 1.19908027e-05 6.86200292e-06 5.80140249e-06
      -1.42249849e-06 -4.01628813e-06 5.78182153e-06 8.19063098e-06
      7.05843695e-06 1.05466979e-05 7.64451124e-06 7.65146888e-06
      -3.38221412e-06 -2.03611944e-06 7.69674728e-07 3.77471929e-06
      6.32849833e-06 -8.07844742e-07 -1.62152519e-05 -2.65546787e-05
      -3.40993502e-05 -2.47309854e-05 1.74498782e-05 2.21426435e-05
      7.68902737e-06 6.05380092e-06 -1.73958949e-06 7.17319062e-06
      1.02438516e-05 9.65440449e-06 1.13054602e-05 1.73599328e-05
      1.79812469e-05 1.59605370e-05 1.38012256e-05 4.08462211e-06
      -2.26044585e-06 -2.24174837e-05 -3.07204791e-05 -1.82168405e-05
      -1.59183455e-05 -1.34469965e-05 -7.82206462e-06 -4.08909227e-06
      -7.71619216e-06 -1.77921061e-06 6.97031919e-06 1.25911492e-05
      1.43065618e-05 1.00476000e-05 -1.59463593e-06 -9.15759392e-06
      -9.73612714e-06 -1.29053378e-05 -1.73438912e-05 -1.16869323e-05
      -5.05536400e-06 1.99063061e-06 1.00784791e-05 1.71052579e-05
      2.93204794e-05 2.26769625e-05 3.16022692e-06 -5.50136247e-06
      -9.06296100e-06 -1.21104731e-05 -1.17217414e-05 -2.06573768e-05
      -2.56749136e-05 -2.61436799e-05 -1.82604508e-05 -1.96261271e-06
      1.74465970e-06 3.15439502e-06 -1.73667786e-06 1.72402702e-06
      4.49100435e-06 6.09031304e-06 6.78089145e-06 7.37885193e-06
      1.16668398e-05 1.43098550e-05 1.04605679e-05 6.14719102e-06
      3.58986563e-06 -6.59460738e-07 2.22956601e-06 2.89473132e-06
      5.89978470e-07 1.03713376e-06 -4.32844615e-07 -3.77701667e-06
      -7.82315237e-06 -1.00414736e-05 -4.19930956e-07 1.16590245e-05
      1.43992611e-05 1.86226989e-05 1.10284891e-05 -1.10768815e-05
      -1.69103532e-05 -2.52509653e-05 -2.60677698e-05 -3.01993969e-05
      -3.44278815e-05 -2.75798211e-05 -1.66506888e-05 -8.45153863e-06
      -8.95526500e-06 -5.22630717e-06 -2.55828604e-06 2.60958564e-06
      4.16502508e-06 -1.29386751e-06 3.36027165e-06 6.60852129e-06
      -1.54131203e-06 -5.44110662e-06 -9.77904256e-06 -2.11767338e-06
      7.88064938e-07 2.14157581e-06 -4.87532270e-06 -2.30856076e-05
      -3.06919137e-05 -3.03505094e-05 -2.61603782e-05 -1.97991794e-05
      -2.08562396e-05 -2.34274012e-05 -8.24316703e-06 1.11686813e-05
      1.51768681e-05 3.81090854e-06 -4.45476871e-06 -8.22287348e-06
      1.31841705e-06 7.69149756e-06 7.76982870e-06 -8.55218423e-06
      -3.01297332e-05 -3.78987424e-05 -3.44755172e-05 -2.04929802e-05
      -6.86256897e-07 6.74453941e-06 5.74289197e-06 4.71350268e-06
      -3.50960840e-06 2.86247996e-07 1.13241697e-06 -1.07257357e-07
      1.09930352e-06 4.40424810e-06 3.91360436e-06 2.19140293e-06
      -1.26164005e-05 -9.79028209e-06 -7.31391765e-06 -3.86198190e-06
      -5.24852055e-07 -1.09316816e-05 -2.55656905e-05 -3.57563622e-05
      -4.28857566e-05 -2.80309523e-05 1.79957951e-05 2.33820901e-05
      9.25371023e-06 7.97311895e-06 -2.78331095e-06 -5.40412520e-06
      3.72126806e-06 6.11565019e-06 7.16798559e-06 1.31709157e-05
      1.57746654e-05 2.28319623e-05 1.92532207e-05 1.22329020e-05
      4.97395968e-06 -6.05052128e-06 -2.15581713e-05 -2.04841253e-05
      -1.26354116e-05 -5.06193055e-06 -3.53839994e-07 1.88424258e-06
      1.03645263e-07 -1.93888945e-06 1.72005855e-06 7.64152901e-06
      1.35601031e-05 8.26812084e-06 -5.86013130e-06 -1.08071681e-05
      -1.24933076e-05 -1.50250680e-05 -2.09163227e-05 -2.00268951e-05
      -1.02585836e-05 -3.26708277e-06 9.31241357e-06 1.81615214e-05
      2.70606779e-05 2.57494939e-05 5.67540201e-06 -4.51162168e-06
      -1.44746682e-05 -1.78757309e-05 -1.95869325e-05 -2.91094148e-05
      -3.18869679e-05 -2.93894518e-05 -2.43654340e-05 -9.05665274e-06
      -2.46386389e-06 6.13896532e-07 -1.44509852e-06 -2.01571538e-06
      -6.91845514e-07 -2.35211974e-06 -1.10930887e-06 -2.72369562e-06
      1.56395481e-06 1.00149264e-05 5.86564738e-06 2.16299418e-06
      2.41812882e-06 9.69827283e-07 1.55710336e-06 4.22544879e-08
      -2.31482704e-06 -8.67942799e-06 -7.91806906e-06 -7.85034172e-06
      -6.39282416e-06 -1.22995725e-05 -7.56807594e-06 -4.66355141e-06
      1.20558286e-06 2.42641727e-06 -1.52112489e-06 -1.73949793e-05
      -2.13731691e-05 -3.01849122e-05 -2.99887161e-05 -3.92883994e-05
      -3.87847067e-05 -3.13075325e-05 -2.23582883e-05 -1.07654823e-05
      -1.12670168e-05 -5.49834567e-06 -3.64501898e-06 -1.52050018e-06
      2.38156099e-06 6.90105892e-08 4.75738898e-06 1.00133348e-05
      4.63878450e-06 2.39817564e-06 -2.47601997e-06 6.74616922e-06
      1.02639378e-05 1.21601879e-05 -1.33184142e-06 -2.33616338e-05
      -3.53286632e-05 -3.43792417e-05 -3.04970126e-05 -2.51836427e-05
      -2.38030534e-05 -2.22702947e-05 -1.27374678e-05 -1.16395540e-07
      2.35630796e-06 -4.56660200e-06 -7.97785196e-06 -4.75914976e-06
      4.53766961e-06 1.12523776e-05 9.47954413e-06 -6.38902839e-06
      -2.91898250e-05 -3.84664963e-05 -3.96809046e-05 -2.18782407e-05
      -6.78549486e-06 1.36277004e-06 3.64778316e-06 1.21945425e-06
      -2.60356433e-06 5.04020727e-06 2.05237802e-06 -3.35050174e-07
      7.34145306e-06 1.42444824e-05 1.28405682e-05 4.25355256e-06
      -8.21481444e-06 -1.00984071e-05 -1.06848174e-05 -6.65718699e-06
      -1.02521590e-05 -2.45971623e-05 -3.68572328e-05 -4.72562606e-05
      -4.71570675e-05 -3.17655504e-05 2.29753350e-05 3.12228876e-05
      1.23319269e-05 1.28941329e-05 -3.00432639e-08 -5.55726456e-06
      -8.05250147e-06 -1.47416256e-06 2.93319954e-06 7.37136634e-06
      2.06600398e-05 2.54268361e-05 2.02986575e-05 1.36040071e-05
      4.21250252e-06 2.24758696e-06 -8.62691923e-06 -8.93857396e-06
      -3.35067352e-06 9.53314213e-07 2.00719933e-06 3.69267013e-06
      2.60859360e-06 5.51423318e-06 -1.81831444e-06 3.67197686e-06
      7.97166012e-06 5.26245731e-06 -3.16888350e-06 -5.75526201e-06
      -5.31018304e-06 -9.58958299e-06 -1.55408379e-05 -2.09528898e-05
      -1.15383946e-05 -4.95823133e-06 1.35829478e-05 1.92981333e-05
      2.21676892e-05 2.18864061e-05 6.91910373e-06 2.75517186e-06
      -8.05659784e-06 -1.20540017e-05 -1.24648086e-05 -2.28106819e-05
      -2.48172455e-05 -2.16204662e-05 -1.16144729e-05 5.83299789e-06
      1.14015629e-05 1.21280345e-05 9.71398890e-07 -8.01518672e-06
      -9.15897635e-06 -1.15731400e-05 -9.84582402e-06 -8.26981432e-06
      -4.29029933e-06 4.56712405e-06 7.22533696e-06 6.57727514e-06
      6.30044042e-06 8.35905939e-06 6.85586519e-06 3.27420275e-06
      6.85144812e-07 -8.47099363e-06 -8.66548635e-06 -1.10325836e-05
      -1.52010916e-05 -1.65668298e-05 -1.03041557e-05 -2.69020561e-09
      6.93930224e-06 6.98730946e-06 1.18884884e-06 -1.53912606e-05
      -2.08012134e-05 -3.31570955e-05 -3.45786902e-05 -4.21733130e-05
      -3.96152209e-05 -3.35058030e-05 -2.50295998e-05 -1.51869817e-05
      -1.79335420e-05 -1.08693885e-05 -1.03452294e-05 -7.02556508e-06
      -1.92197786e-06 2.70079090e-06 8.40156554e-06 1.39451504e-05
      6.58615318e-06 5.65958680e-06 3.46752859e-06 1.38980395e-05
      1.89214079e-05 1.92717507e-05 3.68454789e-06 -1.66740592e-05
      -2.99073017e-05 -2.99737276e-05 -2.73600290e-05 -2.35928674e-05
      -2.55851355e-05 -2.30846490e-05 -1.11385270e-05 -5.17907210e-06
      -5.77859191e-06 -1.09145212e-05 -8.02626073e-06 -1.71122190e-06
      1.06361094e-05 1.91956879e-05 1.80073566e-05 1.03363527e-06
      -2.24744090e-05 -3.37749843e-05 -3.50419432e-05 -1.76983049e-05
      -5.47255877e-06 4.70052237e-06 5.65746586e-06 6.77790604e-06
      3.96032647e-06 6.39311702e-06 1.21422750e-06 5.60480794e-06
      1.40648763e-05 1.84806522e-05 1.69758969e-05 1.15871007e-05
      1.09179302e-06 -7.85233988e-06 -1.17245827e-05 -1.17611544e-05
      -1.93732631e-05 -3.28942479e-05 -4.44367142e-05 -5.41052541e-05
      -5.10187565e-05 -3.19768405e-05 2.47444532e-05 3.32835989e-05
      1.84168930e-05 1.91976051e-05 1.17042227e-05 4.17566935e-06
      -2.03866603e-06 -1.64351002e-06 3.16785554e-06 1.57057348e-05
      2.99923977e-05 3.33112512e-05 2.45015817e-05 2.36099622e-05
      1.56013521e-05 1.06496373e-05 5.10446762e-06 1.05869076e-05
      1.40446173e-05 1.18914795e-05 1.37328270e-05 1.23849995e-05
      1.03395214e-05 1.66564841e-05 1.11191603e-05 1.44429105e-05
      2.03298659e-05 1.41232167e-05 7.34752575e-06 3.89437355e-06
      7.79332913e-06 4.60661568e-06 -3.36412722e-06 -1.41968849e-05
      1.25121153e-06 8.97766949e-06 2.72960879e-05 3.20936051e-05
      3.30665243e-05 2.70992059e-05 1.29822020e-05 9.82025176e-06
      -1.40366936e-07 -2.24615451e-06 -2.56856515e-06 -7.88268608e-06
      -1.03647153e-05 -8.90972115e-06 1.94020595e-06 1.67517810e-05
      1.96628171e-05 2.22966228e-05 1.31034685e-05 -2.43963996e-06
      -8.58415842e-06 -1.39955964e-05 -1.02440799e-05 -8.94715504e-06
      -3.91004096e-06 4.67962900e-06 1.33969488e-05 1.64466892e-05
      1.92125317e-05 2.31450704e-05 1.67971448e-05 1.34965812e-05
      4.46449303e-06 -1.95590383e-06 -2.07685844e-06 -2.58571367e-06
      -5.62084870e-06 -6.07944958e-06 2.51876804e-06 8.54679456e-06
      1.48510426e-05 1.29770096e-05 4.45784462e-06 -1.22942793e-05
      -2.48537708e-05 -3.79778285e-05 -4.09957211e-05 -4.50035368e-05
      -3.93791379e-05 -3.55366792e-05 -2.52208283e-05 -1.88290815e-05
      -2.18682526e-05 -1.73012068e-05 -2.02908268e-05 -1.77142683e-05
      -7.66066569e-06 4.22189942e-06 1.77231686e-05 2.34511135e-05
      1.41911769e-05 1.47841893e-05 1.03111861e-05 2.40350018e-05
      2.90308726e-05 3.12624252e-05 1.70950898e-05 -1.56825161e-06
      -1.51429786e-05 -1.39982958e-05 -1.50663946e-05 -1.34953416e-05
      -1.86251455e-05 -1.74672787e-05 -6.88995942e-06 -5.25363384e-06
      -7.64345805e-06 -7.28823443e-06 2.61849277e-06 7.08992775e-06
      1.53256442e-05 2.15165164e-05 1.86002817e-05 1.99819056e-06
      -2.04346270e-05 -2.78161551e-05 -2.66358365e-05 -1.07132300e-05
      6.86829992e-07 1.11904674e-05 1.08358608e-05 1.31370671e-05
      9.64635728e-06 8.63758578e-06 1.11687295e-05 1.81950145e-05
      2.88990650e-05 2.71441841e-05 2.29462403e-05 2.32856073e-05
      1.64436606e-05 -4.76323777e-07 -4.13102634e-06 -1.06585430e-05
      -1.94929835e-05 -3.08340677e-05 -4.52460408e-05 -5.13354789e-05
      -4.61860764e-05 -2.54037896e-05 3.09578827e-05 4.06066174e-05
      1.51595332e-05 1.84273358e-05 9.72207363e-06 9.64138417e-06
      9.15141300e-06 4.72966713e-06 4.87921125e-06 7.92245373e-06
      1.98409434e-05 2.83718309e-05 2.77426188e-05 3.14725403e-05
      3.03881297e-05 1.46337634e-05 8.98236340e-06 2.13660405e-05
      2.54164224e-05 2.60435936e-05 2.98578780e-05 2.70727323e-05
      2.41714788e-05 1.94958502e-05 1.77158454e-05 2.80479981e-05
      3.03242286e-05 2.28123608e-05 1.68756251e-05 1.20796976e-05
      1.77240327e-05 1.46287803e-05 4.65309267e-06 -2.85517785e-06
      1.16205247e-05 1.84727942e-05 3.00407901e-05 3.34466131e-05
      3.71788301e-05 3.19905848e-05 1.37930074e-05 9.75710282e-06
      2.58206978e-06 3.79309745e-06 6.21288746e-06 8.46422517e-06
      6.79916548e-06 8.47534284e-06 1.64191824e-05 2.55926625e-05
      2.91222623e-05 2.82498477e-05 1.81086598e-05 9.12055930e-06
      2.04017260e-06 -5.54863027e-06 -1.01644409e-05 -9.76460706e-06
      4.62197875e-07 1.23058353e-05 2.10159706e-05 3.45723420e-05
      3.57296558e-05 3.56264245e-05 2.82066558e-05 2.10374474e-05
      5.34654191e-06 6.98733857e-06 4.62533308e-06 6.90959894e-07
      -5.33630555e-07 2.14498456e-07 9.83298833e-06 1.87922251e-05
      2.13165986e-05 2.09985355e-05 9.66690914e-06 -1.55394428e-05
      -3.05233116e-05 -4.23488164e-05 -4.76678106e-05 -5.00387141e-05
      -4.46837512e-05 -4.20834040e-05 -3.20211766e-05 -2.63872425e-05
      -2.95120153e-05 -2.60033357e-05 -2.84918660e-05 -2.63903330e-05
      -1.45683380e-05 1.11911538e-06 1.12287098e-05 2.31532813e-05
      1.18690305e-05 8.28213888e-06 4.31799299e-06 1.97783411e-05
      2.88635201e-05 3.54674157e-05 2.31279882e-05 4.17041792e-06
      -9.42200950e-06 -4.30101591e-06 -5.65047458e-06 -8.01404076e-06
      -2.33597275e-05 -2.06474924e-05 -3.55489556e-06 8.15204112e-06
      9.43647228e-06 9.65401250e-06 1.75117784e-05 1.47021110e-05
      1.68105853e-05 1.98551661e-05 1.94302593e-05 3.68227825e-06
      -1.25954275e-05 -1.41593564e-05 -7.98853762e-06 5.08505445e-06
      1.64952326e-05 1.97256122e-05 1.84692599e-05 2.15961099e-05
      1.65065157e-05 1.41644377e-05 1.92643583e-05 2.76278788e-05
      3.07160917e-05 2.74502563e-05 2.65368908e-05 2.81953853e-05
      2.27212622e-05 1.30449762e-05 2.49715526e-06 -7.21190145e-06
      -1.55021244e-05 -2.80542936e-05 -4.20069773e-05 -4.51251035e-05
      -3.65449159e-05 -2.02356714e-05 3.37399360e-05 3.95643110e-05
      8.92977550e-06 1.09374450e-05 5.55428369e-06 7.68127666e-06
      5.65410755e-06 4.35880884e-06 2.64983578e-06 3.11282406e-06
      1.07379346e-05 1.63664026e-05 2.22624658e-05 3.05885806e-05
      3.49483671e-05 2.27843029e-05 8.53135498e-06 1.85487261e-05
      2.56800995e-05 3.03360321e-05 3.03439065e-05 2.39022302e-05
      2.35713414e-05 2.87929688e-05 2.52544087e-05 3.67831308e-05
      3.41544437e-05 2.25387703e-05 1.63693130e-05 9.19452850e-06
      1.54496938e-05 1.05618237e-05 3.37702772e-06 6.76815353e-06
      1.44966907e-05 1.65036872e-05 2.27727014e-05 2.31798986e-05
      2.86042523e-05 2.21202317e-05 9.66620610e-06 6.70452073e-06
      -8.78876017e-06 -3.85424300e-06 1.07065016e-05 1.75057885e-05
      2.04936568e-05 2.35909993e-05 2.84702492e-05 2.84544294e-05
      3.20911568e-05 2.81668381e-05 1.81344494e-05 8.81022697e-06
      7.81497420e-06 -1.92029825e-06 -6.72888291e-06 -7.82615462e-06
      2.12514306e-06 1.17913260e-05 2.52443751e-05 4.12839072e-05
      3.97742915e-05 3.56103519e-05 2.63204729e-05 1.55584930e-05
      2.26854172e-06 2.49506388e-06 -3.77740957e-06 -3.84721488e-06
      -2.45075216e-06 3.07295807e-07 1.03971242e-05 1.86406214e-05
      2.38702978e-05 1.91883591e-05 1.16590836e-05 -1.51523436e-05
      -3.07498849e-05 -4.09831846e-05 -4.51261221e-05 -4.40529657e-05
      -4.69920778e-05 -4.64191144e-05 -3.66804015e-05 -2.95188693e-05
      -3.01057407e-05 -2.48594879e-05 -2.79000797e-05 -2.52662594e-05
      -1.40783595e-05 2.27090823e-07 1.10525416e-05 2.03721884e-05
      1.20259247e-05 7.24402389e-06 1.85611214e-06 1.71134379e-05
      2.90770422e-05 3.54340227e-05 2.61098230e-05 7.72308067e-06
      -2.72219563e-06 4.68418875e-07 -1.39803581e-06 -8.19274919e-06
      -2.02274750e-05 -1.56613114e-05 5.74568912e-06 2.52174705e-05
      3.09014940e-05 3.04971909e-05 3.54443146e-05 3.00348056e-05
      2.53101789e-05 2.42396127e-05 2.21554237e-05 8.16428928e-06
      -7.47056038e-06 -9.42184670e-06 -1.46819366e-06 1.07689102e-05
      2.27586788e-05 2.83644004e-05 2.59052686e-05 2.98549694e-05
      1.94726799e-05 1.62164142e-05 2.71866120e-05 2.77921990e-05
      3.07318769e-05 2.69796619e-05 2.66441748e-05 3.03952129e-05
      2.67234736e-05 1.88318882e-05 2.62479557e-06 -7.36530183e-06
      -1.28752672e-05 -2.74988597e-05 -3.90791683e-05 -4.78670081e-05
      -4.28447383e-05 -2.22053895e-05 2.65649360e-05 3.56998607e-05
      -3.60994659e-06 -5.76314108e-07 -3.39535586e-06 1.37387156e-06
      4.90126604e-06 7.04227114e-06 2.23714915e-06 -3.44529167e-06
      -7.21558877e-07 1.55569273e-06 2.93961148e-06 6.71102362e-06
      1.16262381e-05 8.47001775e-06 4.48577066e-06 1.29284781e-05
      2.17988145e-05 2.91748402e-05 2.63994443e-05 2.12804571e-05
      1.63364803e-05 2.13135772e-05 1.86222387e-05 2.97550068e-05
      2.50229041e-05 1.64926932e-05 1.00081170e-05 1.87166870e-06
      6.68310804e-06 6.21616709e-06 2.05001993e-06 9.80521963e-06
      1.31084334e-05 7.19635500e-06 1.25246115e-05 1.07614487e-05
      1.22700785e-05 1.26818641e-05 4.72147985e-06 3.01841919e-06
      -1.13060196e-05 -5.44932800e-06 7.83053110e-06 1.58565726e-05
      2.22698309e-05 2.57521206e-05 2.77511263e-05 2.91196229e-05
      2.15250129e-05 1.85412846e-05 1.52750399e-05 1.46164421e-05
      1.04698847e-05 2.93857443e-06 8.31553223e-07 -2.94648112e-06
      1.57134230e-06 1.26884233e-05 2.48936121e-05 3.38688769e-05
      2.95466998e-05 2.88040901e-05 1.49641073e-05 8.33041486e-06
      -7.58596479e-06 -1.69594114e-05 -2.27721321e-05 -1.85895424e-05
      -1.39401691e-05 -8.57107079e-06 2.52602581e-06 8.23033315e-06
      1.78128321e-05 1.06486277e-05 4.28077055e-06 -1.49861089e-05
      -2.67754313e-05 -3.79990634e-05 -4.04838502e-05 -4.27442064e-05
      -5.00049537e-05 -4.95446766e-05 -4.15502909e-05 -3.42825988e-05
      -3.03398083e-05 -2.43027389e-05 -2.55407031e-05 -2.21017435e-05
      -1.19394290e-05 1.29949774e-06 1.16679712e-05 1.97504178e-05
      1.08302365e-05 1.51238783e-06 -4.87786929e-06 6.63608580e-06
      1.95394914e-05 2.60179968e-05 1.65344936e-05 1.96858355e-06
      -5.84381996e-06 -7.90398735e-06 -5.71038936e-06 -1.81773794e-05
      -3.10954310e-05 -1.94641889e-05 6.38751044e-06 2.94215843e-05
      4.02484729e-05 4.13578600e-05 4.15325630e-05 3.48630238e-05
      2.84684393e-05 3.02849712e-05 2.67780051e-05 1.32371888e-05
      -2.20974130e-06 -2.08300708e-06 5.90255650e-06 1.06436082e-05
      1.87150108e-05 2.06784298e-05 1.59215797e-05 2.04320568e-05
      1.59541505e-05 1.35963583e-05 2.08528982e-05 1.70295207e-05
      2.29173056e-05 2.09601149e-05 2.00542381e-05 2.17393208e-05
      2.26677839e-05 1.95544962e-05 1.60384889e-06 -6.98080521e-06
      -1.46064476e-05 -3.23882523e-05 -4.30885557e-05 -5.48924327e-05
      -5.08860794e-05 -2.76421415e-05 2.22874642e-05 3.03935722e-05
      2.99802741e-06 6.43758585e-06 -5.28866678e-07 4.24809696e-06
      6.25615667e-06 6.21834488e-06 2.03020704e-06 -1.58218461e-06
      -4.29228237e-07 -2.46449895e-06 -1.05652298e-05 -1.14595268e-05
      -4.31299350e-06 -3.98325528e-06 -1.80646407e-06 1.10492938e-05
      1.88917002e-05 1.93490669e-05 1.33473150e-05 7.00586179e-06
      -1.33216622e-06 4.57862234e-06 5.87420300e-06 1.30446961e-05
      6.90159686e-06 6.79943969e-06 -4.47208504e-06 -1.24854414e-05
      -5.65231812e-06 -1.92416655e-06 1.29428145e-06 7.55098836e-06
      4.04339971e-06 -2.75604680e-06 -3.01909654e-06 -1.05304471e-05
      -6.27600048e-06 -1.71374359e-06 -6.85112309e-06 -8.26927226e-06
      -2.00854101e-05 -1.33030180e-05 -6.62606453e-06 2.36021378e-06
      1.12137259e-05 1.55597481e-05 1.33587600e-05 1.30992357e-05
      5.02083367e-06 5.20026742e-06 4.59843159e-06 4.28200292e-06
      6.01035117e-06 2.77530785e-06 -6.11875294e-07 -6.42143732e-06
      -6.53031566e-06 3.38556993e-06 1.22903748e-05 1.28839592e-05
      1.06815905e-05 4.87619855e-06 -2.94882852e-06 -7.86326473e-06
      -2.13301173e-05 -3.90753048e-05 -4.00781937e-05 -3.67169450e-05
      -2.92340428e-05 -2.32227303e-05 -1.43755742e-05 -9.38026187e-06
      2.11171908e-07 2.55400528e-06 -3.40733578e-07 -8.95546327e-06
      -1.59722549e-05 -2.42465194e-05 -2.84666348e-05 -3.81171049e-05
      -4.09240856e-05 -4.62060052e-05 -4.06126310e-05 -3.38799327e-05
      -3.35150726e-05 -2.23688785e-05 -2.23223742e-05 -1.63305158e-05
      -9.81601170e-06 5.76664888e-07 4.84177281e-06 7.56280497e-06
      1.74813897e-06 -4.76618288e-06 -1.24934759e-05 -3.07206074e-06
      8.42088593e-06 1.01254591e-05 5.03166439e-06 -9.50963658e-06
      -1.22327810e-05 -1.44413416e-05 -1.55595990e-05 -2.53824746e-05
      -4.16906223e-05 -2.83632962e-05 -7.98060853e-07 2.69520933e-05
      4.44653124e-05 4.60624178e-05 4.31582521e-05 3.21237567e-05
      1.89896073e-05 2.01473449e-05 2.07212070e-05 6.35916194e-06
      -7.47527611e-06 -5.92568949e-06 1.80791199e-06 5.73070838e-06
      1.39914282e-05 1.35786886e-05 8.65161473e-06 9.19372451e-06
      1.59745559e-06 7.30136344e-06 1.74878933e-05 1.34694737e-05
      1.41615055e-05 1.42299532e-05 1.04952542e-05 1.36984554e-05
      1.21205139e-05 1.24144335e-05 1.36719791e-06 -4.52465065e-06
      -1.39970307e-05 -3.79173398e-05 -5.35216459e-05 -6.49028661e-05
      -5.53330719e-05 -2.95935206e-05 2.06611185e-05 2.61295354e-05
      4.09924451e-06 6.43104886e-06 6.80765481e-07 4.33903915e-06
      7.31964701e-06 3.85464591e-06 5.82032214e-07 -2.22488075e-06
      -2.04835465e-06 -4.79257824e-06 -1.55313992e-05 -1.30622220e-05
      -7.11983012e-06 -9.20894399e-06 -9.68769746e-06 4.60712681e-06
      1.82564745e-05 1.64087469e-05 1.22714273e-05 2.09154359e-06
      -6.77644221e-06 -3.97614969e-07 2.45095066e-06 8.38087544e-06
      5.06577408e-06 8.35567607e-06 -1.68341728e-06 -8.75212208e-06
      -4.85588680e-06 -5.25898440e-06 -2.83071631e-06 -1.49877189e-06
      -4.38443385e-06 -1.34602269e-05 -1.61463649e-05 -2.71408135e-05
      -2.15214259e-05 -1.72427845e-05 -2.02504307e-05 -2.26761113e-05
      -2.62161775e-05 -2.70866749e-05 -2.47264488e-05 -1.86058260e-05
      -9.41553481e-06 -5.14810290e-06 -4.54486371e-06 -1.11993431e-05
      -9.09590381e-06 -6.28324642e-06 -3.05833714e-06 -5.05940136e-07
      1.98925682e-06 1.23846814e-06 -2.14314628e-06 -1.09447919e-05
      -1.09511529e-05 -5.17328772e-06 -2.67465930e-06 -2.29689795e-06
      -4.55478676e-06 -6.21556319e-06 -1.13334308e-05 -1.78939208e-05
      -2.97465740e-05 -4.01744292e-05 -4.25951584e-05 -3.77020006e-05
      -2.75518887e-05 -2.30787336e-05 -1.09412704e-05 -4.71594012e-06
      -4.01285803e-07 6.70981808e-06 8.50708875e-06 1.29593644e-07
      -4.34757521e-06 -9.01474868e-06 -1.71718584e-05 -3.48916365e-05
      -4.03429658e-05 -4.16273106e-05 -3.66184649e-05 -3.15307880e-05
      -3.10950818e-05 -2.13762523e-05 -2.18045461e-05 -1.58851071e-05
      -9.82093206e-06 -1.55285409e-06 -1.79395784e-06 -7.73466036e-06
      -1.11089066e-05 -1.90415340e-05 -2.44313087e-05 -1.08390241e-05
      -7.11973235e-06 -3.33772869e-06 -6.97970336e-06 -1.67959133e-05
      -2.04010885e-05 -1.82009280e-05 -2.02821884e-05 -2.96878734e-05
      -5.06299839e-05 -4.20961442e-05 -1.45330359e-05 1.87437145e-05
      3.61920756e-05 4.50686457e-05 4.14220740e-05 3.46056440e-05
      2.07691701e-05 1.87582718e-05 1.98448652e-05 1.09314096e-05
      -5.93962886e-06 -6.38024721e-06 -1.81991243e-06 -1.34124980e-06
      5.33171033e-06 1.86071406e-06 -8.28360498e-06 -5.91600110e-06
      -1.41631044e-05 -3.06550351e-06 9.38815538e-06 1.35961582e-05
      1.64205285e-05 1.67133712e-05 1.06517300e-05 1.39506228e-05
      1.04385354e-05 1.20236873e-05 6.67890026e-06 -4.20068602e-07
      -9.47085664e-06 -2.83714726e-05 -4.64961049e-05 -6.05315690e-05
      -4.94809465e-05 -2.73849691e-05 2.27254113e-05 2.83254249e-05
      5.61216712e-06 7.73297597e-06 -4.25157538e-07 7.93198012e-07
      3.87467753e-06 -4.16141893e-06 -6.91037167e-06 -8.51448749e-06
      -7.43708688e-06 -1.03510474e-05 -1.69260857e-05 -1.56799688e-05
      -1.20122877e-05 -1.21446737e-05 -1.65371330e-05 -6.39041855e-06
      1.71380236e-06 1.61073402e-07 6.42079101e-07 -7.58591750e-06
      -1.05401696e-05 -6.82263953e-06 -8.19963952e-06 4.87927082e-06
      3.29733825e-06 9.83150403e-06 -6.20852063e-07 -1.10776446e-05
      -1.02179383e-05 -1.00780098e-05 -8.51398272e-06 -5.17739727e-06
      -8.85347526e-06 -1.96419260e-05 -2.25439962e-05 -3.42631793e-05
      -3.48127578e-05 -3.19141691e-05 -3.16317928e-05 -2.49976656e-05
      -3.62613464e-05 -3.55408192e-05 -3.33811076e-05 -3.44558466e-05
      -3.50015289e-05 -3.22593114e-05 -3.26877816e-05 -3.46245506e-05
      -2.19900630e-05 -1.40215498e-05 -7.46043315e-06 -8.21992580e-06
      -2.18629862e-06 2.34110473e-07 -5.33474758e-06 -1.15375160e-05
      -1.55754260e-05 -4.36366827e-06 -6.02131695e-06 -6.96626876e-06
      -1.33999747e-05 -8.12307462e-06 -8.80076368e-06 -1.66675545e-05
      -3.03632223e-05 -3.75753298e-05 -3.91840040e-05 -3.47708374e-05
      -2.36357610e-05 -1.42990411e-05 3.76116463e-06 8.84665133e-06
      5.85357247e-06 6.46660601e-06 8.45383965e-06 2.53868961e-06
      3.49519655e-06 1.32645221e-06 -6.37169342e-06 -2.20914499e-05
      -2.89937871e-05 -3.61387974e-05 -3.36661215e-05 -3.02676399e-05
      -3.03061606e-05 -1.87827864e-05 -1.96554829e-05 -1.55697435e-05
      -3.93017444e-06 3.58855868e-06 4.47464345e-06 1.14041563e-06
      -1.27474630e-06 -5.51176618e-06 -1.10852025e-05 -1.00261991e-06
      7.56300915e-06 8.80504376e-06 4.17197180e-06 -4.57349734e-06
      -1.13994465e-05 -9.57235261e-06 -1.14531231e-05 -2.45374176e-05
      -4.58982540e-05 -4.82201285e-05 -2.64640876e-05 4.35928541e-06
      2.65488907e-05 3.88548251e-05 3.97076547e-05 3.35686891e-05
      2.47349344e-05 2.21729460e-05 2.01004350e-05 1.29713608e-05
      -3.75032209e-06 1.58318613e-07 3.72602244e-06 5.80690403e-06
      1.35535101e-05 1.00353727e-05 1.27780720e-06 7.81164817e-06
      -2.53204780e-06 1.00018715e-05 2.00484501e-05 2.13453259e-05
      2.68096919e-05 2.55496016e-05 1.95755729e-05 1.67699745e-05
      9.61714795e-06 1.00819470e-05 1.00553225e-05 8.11955942e-06
      -4.81014467e-06 -1.98825546e-05 -4.27907689e-05 -5.94883895e-05
      -4.59167859e-05 -2.23020834e-05 2.33230385e-05 2.83539066e-05
      6.74063540e-06 9.40162136e-06 2.05639793e-07 -1.55573707e-06
      -6.15840349e-07 -5.01735531e-06 -8.26807900e-06 -1.11334693e-05
      -6.94070604e-06 -7.53116865e-06 -6.36626646e-06 -1.11399440e-05
      -7.70774841e-06 -6.01957299e-06 -1.46324546e-05 -9.99898384e-06
      -5.64065749e-06 -5.12121551e-06 -4.46596323e-06 -1.14375307e-05
      -1.20098703e-05 -6.05969763e-06 -6.32545971e-06 1.05750660e-05
      8.42850750e-06 1.22933643e-05 4.66450228e-06 -6.06071671e-06
      -1.14266586e-05 -1.46421817e-05 -1.55390971e-05 -1.30931203e-05
      -9.75775674e-06 -1.05309100e-05 -1.30372182e-05 -2.39610526e-05
      -2.28629633e-05 -2.22917643e-05 -2.54924271e-05 -2.30273345e-05
      -3.12987213e-05 -2.76881547e-05 -2.22480958e-05 -2.69875400e-05
      -3.45505359e-05 -4.22505764e-05 -4.34043977e-05 -4.11966939e-05
      -2.47184271e-05 -8.79464733e-06 1.13750775e-06 -1.80914674e-06
      -4.29421164e-07 -1.97656436e-06 -3.07207142e-06 -6.53737334e-06
      -6.93065431e-06 -2.35488159e-07 1.66179666e-06 -6.32625472e-07
      -4.87082571e-06 -4.95078075e-06 -7.29444673e-06 -1.53657002e-05
      -1.96139335e-05 -2.23322131e-05 -2.28281497e-05 -2.26813681e-05
      -1.32863597e-05 -9.77433047e-07 1.14333880e-05 9.24923916e-06
      1.02888025e-05 7.79748189e-06 7.68062637e-06 1.38026519e-06
      1.95942584e-06 3.41238916e-07 -7.73715783e-06 -2.47159896e-05
      -2.68398744e-05 -2.79758333e-05 -2.97933693e-05 -3.37138335e-05
      -3.03725210e-05 -1.85907338e-05 -2.17529760e-05 -1.87804271e-05
      -7.93545132e-06 2.01088574e-06 3.35100276e-06 5.86945544e-06
      5.64948687e-06 1.57275372e-06 -3.27437488e-06 3.73470471e-06
      1.13350961e-05 7.55980773e-06 2.99206567e-06 -7.34393825e-06
      -1.30353683e-05 -1.08222102e-05 -6.07288030e-06 -1.47514284e-05
      -4.18371528e-05 -4.66393176e-05 -3.68934525e-05 -9.44683325e-06
      9.52816390e-06 1.82451568e-05 2.52520495e-05 2.40135178e-05
      1.69152845e-05 1.72316722e-05 1.33632939e-05 6.49093681e-06
      -1.59686024e-05 -1.00413536e-05 -8.27187796e-06 3.26023951e-06
      1.31914976e-05 1.15586799e-05 1.09283101e-05 1.83366064e-05
      3.13068881e-06 1.39225758e-05 2.16290409e-05 2.47563548e-05
      3.08967101e-05 2.25284075e-05 2.46918389e-05 1.25687520e-05
      -8.30378895e-07 5.62719833e-07 1.97183499e-06 -1.82045835e-06
      -1.07142005e-05 -2.63163111e-05 -4.85241653e-05 -6.41734950e-05
      -5.04929703e-05 -2.31363483e-05 1.62906072e-05 1.95422454e-05
      6.84862425e-06 7.71918803e-06 2.06022855e-06 -2.33059313e-06
      -4.84991415e-06 -6.26609881e-06 -7.14412454e-06 -9.70811561e-06
      -5.13160239e-06 3.87935279e-06 8.83066969e-06 2.58677346e-06
      7.40854512e-06 1.72545117e-06 -1.05672889e-05 -1.04474857e-05
      -4.55794407e-06 -4.92545678e-06 -5.51017411e-06 -9.01102430e-06
      -1.14549830e-05 -6.36244931e-06 -3.41823397e-06 1.71219799e-05
      2.22520484e-05 2.18460718e-05 1.40833736e-05 5.04488571e-06
      -2.86741283e-06 -7.04037393e-06 -8.54855080e-06 -5.74606474e-06
      2.19835465e-06 3.15367083e-06 6.65720245e-06 2.30658145e-07
      -2.05643619e-06 -1.73850140e-06 -7.80856953e-06 -1.41702249e-05
      -2.47358512e-05 -2.07175071e-05 -2.07973117e-05 -2.54442821e-05
      -4.02211917e-05 -5.43799979e-05 -4.90528946e-05 -3.99961718e-05
      -2.67400410e-05 -1.34051436e-06 7.53553468e-06 3.40530937e-06
      -5.93458992e-07 -8.67823019e-06 -4.36578375e-06 -8.12027338e-06
      -7.72737894e-06 -2.66910297e-06 6.67381028e-06 3.72287968e-06
      1.73585261e-06 -2.52495147e-06 -2.90964158e-06 -7.84145595e-06
      -1.47169503e-05 -1.61414027e-05 -1.50993583e-05 -8.47859337e-06
      7.96180871e-07 5.66609015e-06 1.02626882e-05 8.14239684e-06
      8.58680414e-06 8.40744633e-06 5.36991865e-06 -5.71579676e-06
      -8.76144532e-06 -1.42584440e-05 -2.14243246e-05 -3.41519699e-05
      -3.39532271e-05 -3.08423332e-05 -2.99486055e-05 -3.51396484e-05
      -3.38150312e-05 -1.69543055e-05 -1.72078198e-05 -1.82195490e-05
      -6.92846379e-06 -6.62871685e-07 2.50341532e-06 7.39982352e-06
      1.13700298e-05 1.08302265e-05 7.61694901e-06 1.45420317e-05
      2.09553655e-05 1.29377859e-05 1.04468845e-05 -4.03976992e-06
      -1.01979285e-05 -1.29911659e-05 -8.25725238e-06 -1.52117564e-05
      -3.09034258e-05 -4.19023236e-05 -3.92159927e-05 -1.00702173e-05
      6.92808226e-06 1.13057185e-05 1.30765056e-05 8.19683282e-06
      5.96583186e-06 4.49758272e-06 -4.23055462e-06 -5.02549346e-06
      -2.88204756e-05 -1.95377725e-05 -1.20959021e-05 -2.76769157e-07
      1.07870355e-05 1.39961212e-05 1.75046771e-05 2.41239159e-05
      1.09826160e-05 1.83395878e-05 2.58792006e-05 3.00652446e-05
      3.96764881e-05 3.06799520e-05 2.49772365e-05 1.75666519e-05
      -4.28680693e-07 -5.57731346e-06 -2.27982468e-06 -6.83285180e-06
      -1.77104703e-05 -3.55843404e-05 -5.45327457e-05 -6.70943409e-05
      -5.04560339e-05 -2.20526163e-05 1.40429765e-05 1.74841680e-05
      6.76610853e-06 6.53900815e-06 2.71812087e-06 -1.79275173e-06
      -2.51764618e-06 -1.34256481e-06 -5.00370470e-06 -7.28084524e-06
      5.14795488e-07 2.04850439e-05 2.22680810e-05 2.02259798e-05
      1.98373709e-05 1.11652444e-05 -2.00181989e-06 -4.89969898e-06
      -5.93974983e-06 -9.37188997e-06 -8.30780209e-06 -1.31356974e-05
      -1.75279056e-05 -1.08827517e-05 -2.73204546e-06 1.64689827e-05
      3.27944435e-05 3.40627084e-05 2.26879783e-05 1.77727452e-05
      1.16157007e-05 5.15687088e-06 2.27168925e-06 7.36488857e-07
      1.03196498e-05 2.01679795e-05 2.68013719e-05 2.46892923e-05
      2.32341299e-05 2.42056176e-05 1.45539825e-05 4.13527829e-07
      -7.81653398e-06 -5.58168222e-06 -4.81597681e-06 -1.17770405e-05
      -3.15035941e-05 -4.23679448e-05 -4.32696761e-05 -3.14243007e-05
      -1.20902541e-05 1.10869441e-05 1.94665245e-05 1.58455459e-05
      6.18361128e-06 -5.13921577e-06 -3.56310875e-06 -9.25980839e-06
      -3.54108533e-06 1.86231841e-06 9.88185820e-06 6.32434967e-06
      8.26428845e-07 -5.98635006e-06 -7.89412843e-06 -1.21768035e-05
      -1.24131984e-05 -1.55825765e-05 -1.04236433e-05 3.37378287e-06
      6.49548974e-06 7.37387973e-06 1.10096462e-05 6.21739264e-06
      6.65326661e-06 1.03115790e-05 8.06139451e-06 -5.16422188e-06
      -1.26662044e-05 -2.29532470e-05 -3.56224482e-05 -3.66641725e-05
      -3.39818689e-05 -3.46302695e-05 -3.56046985e-05 -3.81924583e-05
      -3.65321357e-05 -1.78785212e-05 -1.75763380e-05 -1.61751814e-05
      -1.12231010e-05 -7.95550932e-06 -5.11120334e-06 -4.68444341e-06
      4.79153732e-06 9.63452476e-06 1.24536637e-05 1.70636758e-05
      1.77876627e-05 1.10773517e-05 1.16360352e-05 -4.08204869e-06
      -1.10972824e-05 -1.15647681e-05 -8.33818547e-07 -7.66215453e-06
      -1.65746551e-05 -1.52163675e-05 -1.94217864e-05 1.27499470e-06
      2.01588482e-05 2.16199660e-05 1.95952853e-05 1.22368529e-05
      1.00257648e-05 9.27483416e-06 -3.37888451e-07 -1.35467180e-05
      -3.01247874e-05 -2.72544730e-05 -1.13013166e-05 -4.64046343e-06
      6.55206077e-06 1.56029982e-05 1.56394854e-05 1.99907445e-05
      1.49474472e-05 1.79920280e-05 3.11302610e-05 3.34356337e-05
      4.04903512e-05 3.49975599e-05 2.27720338e-05 1.55966100e-05
      4.97503424e-06 -7.34034211e-06 -6.75747424e-06 -9.93749927e-06
      -2.27641794e-05 -4.28122876e-05 -5.84200570e-05 -6.27091213e-05
      -4.74048829e-05 -1.98328926e-05 1.82686181e-05 2.23612296e-05
      7.52163714e-06 7.62717264e-06 5.25808218e-06 -4.20689304e-07
      -1.21759717e-06 2.05250058e-06 9.48102183e-07 7.61071249e-07
      1.25769648e-05 2.84674443e-05 2.93997218e-05 2.81183075e-05
      2.50696212e-05 1.39959611e-05 -1.09435939e-06 -4.87423449e-06
      -4.99998805e-06 -6.52790641e-06 -7.46293881e-06 -1.32166242e-05
      -1.45997828e-05 -2.87923535e-06 3.78485424e-06 1.12686375e-05
      2.83323097e-05 3.19704050e-05 2.06046334e-05 1.97959907e-05
      2.08297115e-05 1.72593554e-05 1.53805449e-05 1.90917017e-05
      1.96207911e-05 2.93522626e-05 4.01568504e-05 4.13851230e-05
      4.06072213e-05 3.80180063e-05 2.36617107e-05 2.24873065e-06
      -1.19898152e-06 -4.02217104e-09 3.17699528e-06 -4.91935498e-06
      -2.18873083e-05 -2.93615012e-05 -2.83902737e-05 -1.25563010e-05
      8.08239929e-06 2.19092344e-05 3.00689426e-05 2.63338279e-05
      1.03066841e-05 -3.61931960e-08 -4.41022985e-06 -5.40316887e-06
      1.67458018e-06 1.04947767e-05 1.93933665e-05 1.47632372e-05
      8.56878796e-06 5.87024215e-06 1.26274062e-06 -2.01457829e-06
      -3.36550829e-06 -1.93996084e-06 2.68592271e-06 1.34980155e-05
      9.49414607e-06 7.38205927e-06 6.65972084e-06 1.22235579e-05
      9.44243129e-06 1.60185482e-05 1.13215656e-05 -5.14782960e-06
      -1.38997748e-05 -3.12896300e-05 -4.79035189e-05 -4.40937765e-05
      -4.47723141e-05 -4.24305726e-05 -4.39189243e-05 -3.96645082e-05
      -3.80046622e-05 -1.84784076e-05 -1.53164256e-05 -9.53468771e-06
      -6.50681977e-06 -3.67212670e-06 -2.55564737e-06 2.48133711e-06
      1.10181918e-05 1.97804875e-05 2.37005152e-05 2.47498647e-05
      2.64532828e-05 1.92690823e-05 1.18134003e-05 -6.78575634e-06
      -1.45532013e-05 -1.13913466e-05 -6.26561950e-06 -4.61059653e-06
      -1.24947064e-05 -1.13588958e-05 -1.36312055e-05 -2.13678982e-06
      1.63733584e-05 1.87605638e-05 1.72865748e-05 1.77371803e-05
      2.00680206e-05 2.70420278e-05 1.49165271e-05 -6.96358302e-06
      -2.45639076e-05 -2.88840602e-05 -1.10839683e-05 -3.54436565e-06
      6.46462513e-06 1.61562730e-05 8.16672946e-06 1.10594719e-05
      8.62410525e-06 1.06155521e-05 2.61648875e-05 3.21734515e-05
      3.52471106e-05 3.19095489e-05 2.20653419e-05 1.47405835e-05
      1.03334205e-05 -4.56833823e-06 -5.26304393e-06 -1.60284908e-05
      -3.81167592e-05 -6.16027173e-05 -7.41473632e-05 -7.06362116e-05
      -4.69490442e-05 -2.32586353e-05 2.04341122e-05 2.11024908e-05
      9.92915284e-06 1.16179381e-05 5.86293390e-06 3.87354294e-06
      3.71491683e-06 3.30995476e-06 1.25302051e-06 1.74621391e-06
      1.62799952e-05 2.55170999e-05 2.90443350e-05 3.26157424e-05
      2.60706674e-05 1.43574098e-05 -1.45326760e-06 -2.96416533e-06
      1.81017015e-06 3.56869464e-06 2.64694336e-06 -3.22215465e-06
      -4.57844999e-06 -1.48646745e-06 4.10793882e-06 5.91046319e-06
      1.93842297e-05 2.22482959e-05 1.06359721e-05 8.30409135e-06
      1.89267757e-05 2.49941040e-05 2.69185712e-05 3.09888383e-05
      3.10369687e-05 3.43832980e-05 4.54545952e-05 4.77657995e-05
      4.83922704e-05 3.96630530e-05 2.02325882e-05 2.26982957e-06
      2.16558738e-06 4.49755862e-06 3.88792705e-06 -7.61760589e-07
      -1.09016364e-05 -1.54302579e-05 -9.54988536e-06 7.23210223e-06
      2.21931714e-05 3.14716490e-05 3.50637201e-05 2.85989136e-05
      1.17406416e-05 -1.47863841e-06 -1.00151319e-05 -9.28239751e-06
      1.48237234e-06 7.86328837e-06 1.70153162e-05 1.34449074e-05
      1.05285262e-05 7.15091437e-06 5.34178025e-06 2.47114781e-06
      -1.79521703e-06 3.68586302e-06 9.93279900e-06 2.13937819e-05
      1.43587349e-05 5.93569530e-06 -1.49283562e-06 1.24904809e-05
      1.03787233e-05 1.27368385e-05 1.47078308e-05 -6.65491314e-07
      -1.61311436e-05 -3.94338822e-05 -4.95519453e-05 -4.30932560e-05
      -4.67903265e-05 -4.80985072e-05 -4.89262893e-05 -3.88047083e-05
      -3.86944921e-05 -2.04926946e-05 -1.58617568e-05 -6.95943481e-06
      -1.11911859e-07 -4.81791449e-06 -3.01427167e-06 1.03078228e-05
      1.87770038e-05 2.88906067e-05 3.09530915e-05 2.66081024e-05
      2.53369908e-05 1.64458816e-05 4.87128182e-06 -1.03356078e-05
      -1.63554287e-05 -9.19728154e-06 -1.41713076e-06 -1.24649398e-06
      -6.10440338e-06 -2.37677295e-06 -5.96415430e-06 4.62577219e-07
      1.18468370e-05 2.05727920e-05 2.36738015e-05 3.21876978e-05
      4.11128058e-05 4.45032456e-05 3.05335379e-05 2.54249358e-06
      -1.94153636e-05 -2.32628081e-05 -1.13267533e-05 -3.52281381e-06
      1.13392534e-05 1.90022947e-05 4.33419427e-06 3.97486201e-06
      -1.58437331e-06 3.20177719e-06 1.65201072e-05 2.46761665e-05
      2.83362460e-05 2.24306477e-05 1.28964239e-05 8.83675602e-06
      1.07806945e-05 7.85385851e-07 1.57706165e-06 -5.64797119e-06
      -2.17099314e-05 -4.35940929e-05 -5.40631299e-05 -5.54890248e-05
      -3.77826946e-05 -2.87984240e-05 1.52027887e-05 1.15310449e-05
      4.38523512e-06 1.22164574e-05 6.86580415e-06 9.20994535e-06
      7.08012249e-06 7.47619151e-06 1.24435201e-06 3.95087591e-06
      1.62721044e-05 2.19697031e-05 2.62271915e-05 2.50384255e-05
      2.20979728e-05 1.37450206e-05 -1.56280214e-06 -2.05123956e-06
      3.54839926e-06 3.76224807e-06 2.53076109e-06 -2.08949518e-06
      -5.83530164e-06 -6.27813461e-06 -7.03424848e-06 -1.82011547e-06
      -7.02362854e-07 3.51713743e-06 -1.08011000e-05 -9.65704385e-06
      9.43178020e-06 2.06792283e-05 2.32918846e-05 2.53348790e-05
      3.10305295e-05 3.05826798e-05 3.85014573e-05 3.58745892e-05
      3.65653505e-05 2.45945957e-05 4.68351300e-06 -1.18816515e-05
      -7.84448457e-06 -2.54157180e-06 -2.37250538e-06 1.61012349e-06
      -5.53260679e-06 -9.45369538e-06 -7.19663240e-06 1.03318935e-05
      2.06068707e-05 3.04093228e-05 2.96921844e-05 2.39421934e-05
      7.65272671e-06 -7.40214591e-06 -2.00514842e-05 -1.89632228e-05
      -6.34004982e-06 2.24326740e-07 6.37790345e-06 4.96143093e-06
      5.00612396e-06 3.67485427e-06 3.87463888e-06 3.46030265e-06
      3.16099113e-06 9.28535064e-06 1.11880418e-05 1.48650324e-05
      6.84955739e-06 -5.82155099e-06 -1.39836857e-05 5.51905987e-06
      8.33446848e-06 9.80834648e-06 1.15965249e-05 3.76719618e-06
      -1.29950613e-05 -3.24131252e-05 -3.89773923e-05 -4.26840670e-05
      -4.78317597e-05 -5.44547183e-05 -5.46181182e-05 -4.32512461e-05
      -4.19706739e-05 -2.63971033e-05 -1.82787153e-05 -8.87866281e-06
      -1.41338626e-06 1.14667705e-06 3.53263363e-06 1.68279912e-05
      2.61952773e-05 3.26244190e-05 3.31572555e-05 2.73413916e-05
      2.20198799e-05 1.22926431e-05 1.72270848e-06 -7.68151949e-06
      -1.63490804e-05 -1.15891289e-05 -9.90160879e-06 -1.22605425e-05
      -1.19176138e-05 -5.84924237e-06 -5.01702289e-06 1.41460043e-06
      1.02207769e-05 2.10203943e-05 2.72253965e-05 4.26706720e-05
      5.25521209e-05 5.26724871e-05 3.77248252e-05 1.30797189e-05
      -5.47924355e-06 -2.02598512e-05 -1.38559717e-05 -6.30895238e-06
      1.18747894e-05 2.15121963e-05 5.35693516e-06 -7.81753542e-08
      -1.30564640e-05 -1.11233367e-05 -5.16633190e-06 7.12222209e-06
      1.67850958e-05 2.51809597e-05 2.59357203e-05 2.06390177e-05
      2.04403623e-05 1.66009013e-05 6.27844474e-06 1.88260810e-06
      -1.40569182e-05 -3.44859072e-05 -4.87246652e-05 -4.83518816e-05
      -3.67632456e-05 -3.09353127e-05 9.45369993e-06 4.12631562e-06
      1.30194064e-06 1.09036391e-05 7.10215636e-06 1.14088571e-05
      1.03288394e-05 1.02168769e-05 2.19455799e-07 4.79274013e-06
      8.71115753e-06 8.90358751e-06 1.00168263e-05 7.71002215e-06
      8.24916970e-06 -6.34115850e-07 -5.99313807e-06 -1.79133576e-06
      1.83366285e-06 5.59390628e-06 5.15974898e-06 -2.76664332e-06
      -6.83968028e-06 -1.19207270e-05 -1.56440219e-05 -1.82330623e-05
      -1.83269512e-05 -1.74702891e-05 -2.80655477e-05 -2.78293610e-05
      -1.04837472e-05 1.11698491e-05 1.80251955e-05 2.16788485e-05
      2.05859087e-05 1.78101636e-05 1.59747433e-05 1.11343325e-05
      9.47933950e-06 -3.11616714e-06 -1.74205379e-05 -2.91551314e-05
      -2.49657351e-05 -1.96278270e-05 -1.70834737e-05 -1.05413083e-05
      -8.36870549e-06 -3.48537014e-06 -2.44068588e-06 6.74478906e-06
      1.39292542e-05 1.73651224e-05 1.67195558e-05 1.27069716e-05
      4.02330926e-07 -1.60784821e-05 -2.76573301e-05 -2.84735652e-05
      -1.86166817e-05 -1.37626248e-05 -7.96498807e-06 -9.46357977e-06
      -6.79626328e-06 -6.50871561e-06 -1.99974352e-06 2.21142159e-06
      7.34278638e-06 7.35840331e-06 4.92051731e-06 -1.15037324e-06
      -6.52225617e-06 -2.18641235e-05 -2.22118233e-05 -7.31555792e-06
      6.43549947e-06 8.29837518e-06 4.80309154e-06 8.76614365e-07
      -1.41919063e-05 -2.50230023e-05 -3.28295937e-05 -3.88620429e-05
      -4.91790270e-05 -5.73616962e-05 -5.91170065e-05 -4.98256159e-05
      -4.68781436e-05 -2.72453744e-05 -1.73237859e-05 -3.51179369e-06
      5.71244072e-06 1.24449525e-05 2.02847241e-05 3.19689534e-05
      4.28064632e-05 4.65249832e-05 4.52268978e-05 3.54815747e-05
      2.30607257e-05 1.50151172e-05 2.74968988e-06 -5.00563510e-06
      -9.83748851e-06 -8.92347634e-06 -9.77841955e-06 -1.65346701e-05
      -1.72894506e-05 -9.72964153e-06 -7.34989044e-06 1.13678550e-06
      5.09268830e-06 1.26662790e-05 2.75078964e-05 4.32050510e-05
      5.37538472e-05 5.01660652e-05 3.83434781e-05 1.99120932e-05
      -4.86226418e-06 -2.13879703e-05 -2.16469598e-05 -1.23188793e-05
      9.46774799e-06 1.48872705e-05 1.53876636e-06 -3.34524293e-06
      -1.02281556e-05 -1.33180683e-05 -8.80151401e-06 3.45951685e-06
      1.59168667e-05 2.38523262e-05 2.64186001e-05 2.35983262e-05
      1.91640102e-05 1.54908612e-05 6.39672271e-06 7.44504291e-07
      -1.05299105e-05 -2.62938956e-05 -4.65087687e-05 -4.98687295e-05
      -5.08791927e-05 -4.49895888e-05 -6.15548424e-06 -7.96812219e-06
      1.12996463e-06 1.03143911e-05 7.09266988e-06 1.17445197e-05
      1.04223100e-05 7.81063409e-06 -2.11598035e-06 1.98151383e-06
      1.03917746e-05 9.86294526e-06 4.78951233e-06 2.93268931e-06
      2.36070400e-06 -4.71235671e-06 -1.12507269e-05 -5.78065647e-06
      -4.15939439e-06 -5.70944167e-06 -1.44391070e-05 -2.15371037e-05
      -2.66529823e-05 -2.80786498e-05 -2.94974125e-05 -3.10649120e-05
      -3.50595255e-05 -3.39883190e-05 -3.41314772e-05 -3.23609856e-05
      -2.08316487e-05 -4.10855728e-06 1.67105179e-06 5.88081230e-06
      9.02167631e-06 5.32826652e-06 4.13535105e-07 -6.47016986e-06
      -1.22495312e-05 -1.29800237e-05 -2.24292853e-05 -3.10290707e-05
      -3.65842061e-05 -3.20413637e-05 -2.18088990e-05 -1.57570921e-05
      -1.28460997e-05 -5.60988519e-06 -8.79017875e-07 3.89300203e-06
      8.61252647e-06 1.09759530e-05 8.68017014e-06 8.20902187e-06
      -7.58393162e-06 -2.25133099e-05 -2.90055632e-05 -2.76772935e-05
      -2.42916813e-05 -1.90977771e-05 -1.89335242e-05 -2.16238677e-05
      -1.91489580e-05 -9.69629491e-06 -3.14294107e-06 1.85822341e-06
      3.64563357e-06 1.07138328e-06 -4.64425739e-06 -1.37504212e-05
      -2.22240160e-05 -3.11474614e-05 -2.48483066e-05 -1.68565330e-05
      -8.91053696e-06 -6.80865287e-06 -6.50842867e-06 -8.56777660e-06
      -1.71429620e-05 -2.27208438e-05 -3.06546826e-05 -3.51834824e-05
      -4.55171175e-05 -5.43061287e-05 -6.00390958e-05 -5.54999751e-05
      -4.58958020e-05 -2.65933631e-05 -1.57188424e-05 -1.91284244e-06
      3.22251685e-06 9.77052059e-06 2.01180519e-05 3.28478964e-05
      4.16440926e-05 4.46103113e-05 3.91638350e-05 2.59880871e-05
      1.19752058e-05 6.09048993e-06 1.46028654e-07 -1.12241532e-05
      -9.54908046e-06 -8.00159251e-06 -1.33246340e-05 -1.98828511e-05
      -2.27192068e-05 -1.88549111e-05 -1.60744967e-05 -6.73981640e-06
      -2.24437463e-06 8.78434275e-06 2.40707741e-05 3.61079547e-05
      4.21123186e-05 3.81104255e-05 2.93419598e-05 1.52043795e-05
      -1.21500671e-05 -2.57073279e-05 -2.69871998e-05 -1.67147991e-05
      5.12142287e-06 1.18145344e-05 -2.03288823e-06 -2.73346018e-06
      -4.13762064e-06 -1.06291836e-05 -9.92569130e-06 2.08605297e-06
      1.46334569e-05 2.25332060e-05 2.14187403e-05 1.49116076e-05
      8.13908628e-06 3.87717273e-06 -3.50381333e-06 -8.75364640e-06
      -1.63322784e-05 -2.99256571e-05 -4.58175891e-05 -5.21732145e-05
      -5.93656696e-05 -4.66283163e-05 -5.77109950e-06 -7.30259444e-07
      -1.16714746e-05 -6.75268666e-06 -1.10432111e-05 -4.55436293e-06
      1.89745708e-06 5.21703942e-06 3.13343946e-07 1.96763736e-07
      3.29010845e-06 -1.43557514e-07 -9.43248324e-06 -1.09382363e-05
      -1.27896556e-05 -1.53010151e-05 -1.92987918e-05 -1.71574266e-05
      -1.66881564e-05 -1.85082517e-05 -2.67788746e-05 -2.87753883e-05
      -2.89482086e-05 -2.45720257e-05 -2.52987775e-05 -2.68563435e-05
      -3.75040072e-05 -3.90470559e-05 -4.28748135e-05 -3.85622807e-05
      -3.02002900e-05 -2.17339530e-05 -1.10801402e-05 -6.37480753e-06
      -3.48064054e-06 -4.47560478e-06 -8.76364447e-06 -1.68664610e-05
      -2.56980311e-05 -2.74564354e-05 -2.67955202e-05 -2.49386012e-05
      -2.84302914e-05 -3.72651812e-05 -2.85418009e-05 -2.06152035e-05
      -1.84549262e-05 -9.58770670e-06 -1.79370124e-06 3.53136670e-06
      6.62978118e-06 9.14064640e-06 6.40916414e-06 -2.21176242e-06
      -1.88315025e-05 -3.12853153e-05 -3.10433243e-05 -2.78541138e-05
      -2.59020107e-05 -2.17744273e-05 -2.10850922e-05 -2.22633807e-05
      -2.11327970e-05 -1.26171117e-05 -5.43237911e-06 -1.36366964e-06
      -1.27328337e-06 -5.79566449e-06 -1.45953036e-05 -2.52146983e-05
      -3.92715010e-05 -4.12614572e-05 -2.90887547e-05 -2.48079778e-05
      -2.34644867e-05 -2.33563696e-05 -2.30267033e-05 -2.08430738e-05
      -2.29855232e-05 -2.45271731e-05 -2.81481680e-05 -3.09694333e-05
      -3.74544506e-05 -4.83710246e-05 -5.33956663e-05 -4.23124329e-05
      -3.61979583e-05 -1.57288341e-05 -1.02037056e-05 -9.20246237e-07
      7.78111189e-06 1.37934003e-05 2.32218390e-05 2.94049823e-05
      3.48370559e-05 3.46034249e-05 2.85440092e-05 1.31591996e-05
      3.08360632e-06 -4.00674162e-06 -9.26719622e-06 -1.24119433e-05
      -1.11350182e-05 -7.10528184e-06 -9.16155750e-06 -1.30822900e-05
      -2.05706456e-05 -1.66322916e-05 -1.59823539e-05 -7.40225732e-06
      -3.99979314e-07 3.19618789e-06 1.89674538e-05 3.02211429e-05
      3.18981765e-05 2.71258414e-05 2.79193682e-05 1.46049215e-05
      -6.77528169e-06 -1.79095296e-05 -2.01342355e-05 -6.70339114e-06
      7.44133058e-06 6.24072572e-06 1.60046261e-06 -2.03425628e-07
      6.88278021e-07 -6.95825202e-06 -1.05167583e-05 -3.28898523e-06
      6.34165053e-06 1.14465256e-05 1.12283424e-05 3.96910809e-06
      -4.30688971e-07 -3.76759090e-06 -1.12676271e-05 -1.45618078e-05
      -2.13408748e-05 -3.08632589e-05 -3.69179979e-05 -4.23741876e-05
      -5.05539101e-05 -3.22900378e-05 7.50600066e-06 1.87010628e-05
      -9.57304292e-06 -1.20021396e-05 -1.35236642e-05 -6.92166532e-06
      1.87559760e-06 1.00802367e-06 1.83947952e-06 2.83760937e-06
      2.93768198e-06 -2.65453150e-06 -1.11397458e-05 -1.52076245e-05
      -1.82446656e-05 -2.28200370e-05 -2.77719282e-05 -2.35909938e-05
      -2.37619661e-05 -2.40796762e-05 -2.61039550e-05 -2.75353304e-05
      -2.69035099e-05 -2.51432994e-05 -2.34264153e-05 -2.27995624e-05
      -2.91476408e-05 -3.04301793e-05 -3.57831523e-05 -3.73685725e-05
      -3.32531527e-05 -2.99586045e-05 -2.26183001e-05 -1.96554811e-05
      -1.66831105e-05 -1.31273100e-05 -1.73683529e-05 -2.72405687e-05
      -3.70442576e-05 -4.04493912e-05 -3.40626393e-05 -3.37618440e-05
      -2.79618253e-05 -3.21857733e-05 -3.82625949e-05 -3.46969864e-05
      -2.79744127e-05 -2.00394115e-05 -1.65181700e-05 -8.68119332e-06
      -1.07799656e-06 4.89269887e-08 -9.42177576e-06 -2.21088394e-05
      -3.36164194e-05 -3.28864844e-05 -3.39597536e-05 -3.26743648e-05
      -2.83748523e-05 -2.64028731e-05 -3.02763110e-05 -3.07841947e-05
      -3.05035519e-05 -2.14689062e-05 -1.49385805e-05 -9.29233192e-06
      -1.29221598e-05 -2.04554563e-05 -2.97162678e-05 -3.82483195e-05
      -4.39884461e-05 -4.55435511e-05 -3.89408269e-05 -3.49728034e-05
      -3.42852873e-05 -3.68400579e-05 -3.38137143e-05 -3.02118315e-05
      -2.56543044e-05 -2.22761009e-05 -2.14498468e-05 -2.57415195e-05
      -3.59048136e-05 -3.91635804e-05 -4.11420624e-05 -3.78081204e-05
      -2.65877006e-05 -1.79686413e-05 -9.96540257e-06 -7.55647352e-06
      -3.79014386e-06 1.45790034e-06 5.16501450e-06 9.76949377e-06
      1.38356500e-05 1.30315611e-05 7.17750254e-06 -3.17394370e-06
      -1.00803363e-05 -1.51679906e-05 -9.67514188e-06 -8.54144673e-06
      -4.59658349e-06 2.31300032e-06 6.93090897e-06 6.02714590e-06
      1.86303353e-07 -5.33821185e-06 -1.07981850e-05 -7.79467246e-06
      -6.63783476e-06 -5.90867285e-06 3.57606439e-07 5.65095888e-06
      4.25389271e-06 3.84282203e-06 3.22073902e-06 4.95269489e-07
      -1.78498740e-05 -2.50479716e-05 -2.41038215e-05 -1.69950235e-05
      -9.98567702e-06 -5.81429049e-06 -3.73735315e-06 -4.66736628e-06
      -9.53022027e-06 -1.40913589e-05 -1.60186210e-05 -1.34246211e-05
      -1.01672431e-05 -9.47457193e-06 -1.23277277e-05 -1.81934774e-05
      -1.97573063e-05 -2.05339911e-05 -2.33672472e-05 -2.64612409e-05
      -3.07998234e-05 -3.30567818e-05 -3.27210364e-05 -3.11662188e-05
      -3.53321448e-05 -1.75215246e-05 1.90261926e-05 3.45249609e-05
      -3.44530645e-06 -8.59385455e-06 -8.50566721e-06 -5.29692943e-06
      2.62829167e-06 1.71504405e-06 2.37448421e-06 1.07677863e-06
      3.00588931e-06 3.45457039e-07 -6.98242002e-06 -1.25976712e-05
      -1.80048210e-05 -2.30560381e-05 -2.82421552e-05 -2.76302981e-05
      -2.51506117e-05 -2.59005228e-05 -2.90289208e-05 -2.78921307e-05
      -2.58959117e-05 -2.35712760e-05 -2.22189574e-05 -2.25381718e-05
      -2.25601416e-05 -2.75713046e-05 -3.02080534e-05 -3.42320745e-05
      -3.69553345e-05 -3.54657896e-05 -3.22651940e-05 -2.58471991e-05
      -2.51560577e-05 -2.54686947e-05 -2.98162850e-05 -3.43682259e-05
      -3.62042083e-05 -3.85623498e-05 -3.89929264e-05 -3.53675787e-05
      -2.85762580e-05 -3.16493642e-05 -3.40613842e-05 -3.39877843e-05
      -2.85467231e-05 -2.38906068e-05 -2.04160024e-05 -1.35903701e-05
      -6.69882002e-06 -6.05646119e-06 -9.87762542e-06 -1.02730719e-05
      -1.03507682e-05 -1.08502181e-05 -1.67904273e-05 -1.95387693e-05
      -1.86372708e-05 -2.15856890e-05 -2.41096677e-05 -2.70055698e-05
      -3.06986949e-05 -2.61765763e-05 -2.67377927e-05 -2.35968619e-05
      -2.54744427e-05 -3.05877584e-05 -3.44974142e-05 -3.47935274e-05
      -3.57169301e-05 -3.54490294e-05 -3.34388969e-05 -3.12458578e-05
      -2.97436254e-05 -2.95445625e-05 -2.62509657e-05 -2.47617427e-05
      -2.28456629e-05 -2.02071951e-05 -2.35517837e-05 -2.32119874e-05
      -2.47328117e-05 -2.60140387e-05 -2.32949315e-05 -1.65719721e-05
      -8.28040993e-06 -6.27069721e-06 -3.20732988e-06 -2.37114182e-06
      -2.29237389e-06 -1.72578086e-06 -1.05882532e-06 3.90480352e-07
      -9.37207062e-07 -4.27907298e-06 -9.20635375e-06 -1.58725361e-05
      -1.55573725e-05 -1.30878880e-05 -7.20737171e-06 -7.99590453e-06
      -5.64063248e-06 -4.13816360e-06 -3.23710856e-06 -5.60638591e-06
      -7.10370796e-06 -5.27456541e-06 -9.59011049e-06 -1.29205000e-05
      -2.07134271e-05 -1.65534602e-05 -2.53010130e-05 -3.08967465e-05
      -2.91818542e-05 -2.80431632e-05 -2.18283440e-05 -2.35049793e-05
      -2.30119949e-05 -1.86492944e-05 -1.33103376e-05 -1.40057427e-05
      -1.63240911e-05 -2.25788790e-05 -2.18542245e-05 -2.17752931e-05
      -2.17955858e-05 -2.34938252e-05 -2.42248334e-05 -2.61036657e-05
      -2.74572503e-05 -2.53505041e-05 -2.67226569e-05 -2.76094561e-05
      -2.56587227e-05 -2.62525900e-05 -3.13694909e-05 -3.31687588e-05
      -3.01245163e-05 -2.90051867e-05 -2.34207000e-05 -1.92335629e-05
      -1.56399510e-05 3.26578316e-07 2.85807273e-05 3.99834098e-05
      5.81594850e-06 3.15484982e-07 2.95155951e-06 5.19270861e-06
      8.98381950e-06 8.53598522e-06 9.37889672e-06 9.17742182e-06
      7.60775401e-06 7.38892277e-06 5.91612024e-06 3.30841794e-06
      1.89009569e-07 -3.89664001e-06 -1.09440498e-05 -8.63324567e-06
      -1.01725545e-05 -1.06572834e-05 -1.47202600e-05 -1.43431007e-05
      -1.36030321e-05 -1.06129628e-05 -9.26826397e-06 -9.33818683e-06
      -1.03309130e-05 -1.14218274e-05 -1.30534809e-05 -1.36979879e-05
      -1.69662653e-05 -2.00390659e-05 -1.88188424e-05 -1.55230973e-05
      -1.17820573e-05 -1.51405666e-05 -1.77477559e-05 -1.56645019e-05
      -1.44547957e-05 -1.81374962e-05 -2.35281677e-05 -2.27325181e-05
      -2.15943364e-05 -1.42324898e-05 -1.30099479e-05 -1.35217615e-05
      -1.05298741e-05 -7.98967812e-06 -9.73321858e-06 -7.72442945e-06
      -2.35881294e-06 -7.75358842e-07 -8.76468334e-07 -2.04285379e-06
      6.45402025e-08 7.69422968e-07 -4.83641429e-07 -6.37139101e-06
      -8.22083439e-06 -1.05182444e-05 -1.33222711e-05 -1.09876792e-05
      -1.29225382e-05 -1.19393317e-05 -1.33924987e-05 -1.32657351e-05
      -1.48971230e-05 -1.93586493e-05 -2.24735413e-05 -2.51874171e-05
      -2.66852112e-05 -2.44530256e-05 -1.87781807e-05 -1.92082971e-05
      -1.80074221e-05 -1.68907955e-05 -1.26743926e-05 -1.16686024e-05
      -1.08967724e-05 -8.66348182e-06 -9.47646913e-06 -9.16504905e-06
      -9.00479426e-06 -1.05473055e-05 -8.75277328e-06 -3.84801479e-06
      -2.33735182e-06 -3.55099883e-06 -4.13539647e-06 -1.83252484e-06
      -2.45877573e-07 6.30923068e-07 4.70305991e-07 2.26028487e-06
      2.49717186e-06 3.81101501e-07 -7.06328706e-07 -1.28357908e-06
      -1.96098085e-07 9.37483321e-07 2.44963030e-06 5.25897167e-06
      5.85994485e-06 9.81391986e-06 7.79028596e-06 4.23289293e-06
      4.46214108e-06 1.20312166e-06 -3.50384175e-06 -1.80958959e-05
      -2.32827442e-05 -2.31695649e-05 -2.48430406e-05 -2.73884016e-05
      -2.77543368e-05 -2.60720626e-05 -2.46269883e-05 -2.20343263e-05
      -1.87216592e-05 -1.36895078e-05 -6.35437664e-06 -5.61325714e-06
      -9.89374166e-06 -1.41132205e-05 -1.52496305e-05 -1.13264523e-05
      -7.97204666e-06 -8.31701618e-06 -8.30886802e-06 -8.85763711e-06
      -9.75380135e-06 -8.89728562e-06 -9.55379892e-06 -1.00634170e-05
      -1.05576009e-05 -1.28410320e-05 -1.59653500e-05 -1.11066438e-05
      -8.07269680e-06 -7.54305711e-06 -3.51408084e-06 -2.32248863e-06
      3.97010308e-06 1.55943635e-05 3.45538356e-05 4.18898999e-05
      2.47707721e-05 2.32898401e-05 2.91254128e-05 3.03777524e-05
      3.22310334e-05 3.14779281e-05 3.20411673e-05 2.94215351e-05
      2.94038255e-05 2.83390382e-05 3.01224281e-05 3.20428480e-05
      3.15109792e-05 2.97602892e-05 2.74587437e-05 2.70278906e-05
      2.75246839e-05 2.55735631e-05 2.27369219e-05 2.25379663e-05
      2.63152160e-05 2.74601116e-05 2.76588380e-05 2.62134690e-05
      2.83404770e-05 2.70714827e-05 2.60366069e-05 2.60523993e-05
      2.45253505e-05 2.35958814e-05 2.18237565e-05 2.60106299e-05
      3.20442123e-05 3.48546600e-05 2.58103482e-05 2.32003567e-05
      2.24042105e-05 2.22527342e-05 1.96388864e-05 1.74759407e-05
      1.76976646e-05 1.74618872e-05 1.61269563e-05 1.74927482e-05
      2.72317757e-05 2.98059804e-05 3.25586152e-05 3.22072738e-05
      3.37202473e-05 3.32306918e-05 3.40377046e-05 3.45690642e-05
      3.90696405e-05 3.75650270e-05 3.56367345e-05 2.83740792e-05
      2.55487630e-05 2.79065171e-05 2.75463772e-05 2.96334820e-05
      2.61503410e-05 2.46374093e-05 2.33131959e-05 2.23488896e-05
      2.48761517e-05 2.47061889e-05 2.10298513e-05 1.80053703e-05
      1.80895877e-05 2.03861800e-05 2.11765746e-05 2.04490643e-05
      1.78593018e-05 1.88263548e-05 2.07926296e-05 2.16975695e-05
      2.39320998e-05 2.58030468e-05 2.69375741e-05 2.62571320e-05
      2.70906385e-05 2.32258317e-05 2.49506702e-05 2.47240841e-05
      2.76770570e-05 2.97838360e-05 3.07134542e-05 3.03757497e-05
      3.31641822e-05 3.56383098e-05 3.49726324e-05 3.47414607e-05
      3.31569900e-05 2.93337725e-05 2.58073833e-05 2.61080222e-05
      2.61509194e-05 2.69628381e-05 2.69548145e-05 2.52207865e-05
      2.63082366e-05 2.68708227e-05 2.60943361e-05 2.13551084e-05
      1.97170775e-05 2.12608520e-05 2.37663062e-05 2.08969286e-05
      1.44085398e-05 1.23898062e-05 7.86626606e-06 4.75219213e-06
      4.82473251e-06 6.55973417e-06 8.64700360e-06 6.65541120e-06
      1.27274297e-05 1.27374933e-05 1.65006240e-05 1.79868239e-05
      1.70713683e-05 1.79891795e-05 1.75304540e-05 2.23947591e-05
      2.92862096e-05 2.98103987e-05 2.65171184e-05 2.57567463e-05
      2.76126921e-05 3.00896609e-05 3.05053345e-05 2.94231904e-05
      2.66265579e-05 2.71129811e-05 2.69576522e-05 2.82731762e-05
      2.87515941e-05 2.92654058e-05 2.75478833e-05 2.38011216e-05
      2.57064621e-05 3.30532057e-05 4.77295835e-05 4.97969158e-05
      2.72586403e-05 2.86203194e-05 3.46475972e-05 3.72149989e-05
      3.49545517e-05 3.56226628e-05 3.30572875e-05 3.02099761e-05
      2.93664052e-05 3.03720717e-05 3.19239298e-05 3.30999319e-05
      3.44331311e-05 3.24032590e-05 3.16809092e-05 3.11318836e-05
      3.04988298e-05 2.81270204e-05 2.68023014e-05 2.50797875e-05
      2.79647284e-05 2.74518388e-05 3.02042899e-05 2.83877434e-05
      3.04652476e-05 2.94088295e-05 2.88956617e-05 2.90034968e-05
      2.77998115e-05 2.65946128e-05 2.55476916e-05 2.74121994e-05
      3.28940332e-05 3.56418423e-05 2.87451603e-05 2.52640766e-05
      2.60275938e-05 2.56782732e-05 2.42908427e-05 2.32063649e-05
      2.14007541e-05 2.07700832e-05 2.14697393e-05 2.05043489e-05
      1.99052865e-05 1.97037589e-05 2.24109644e-05 2.17712113e-05
      2.01350358e-05 1.97762747e-05 2.22044109e-05 2.23729603e-05
      2.69572010e-05 2.90145908e-05 2.73459773e-05 1.91732343e-05
      1.58296934e-05 1.85039389e-05 2.08020392e-05 2.24822907e-05
      2.10127764e-05 1.83974116e-05 1.68728238e-05 1.82120129e-05
      2.04889002e-05 1.71077190e-05 1.49404841e-05 1.33287740e-05
      1.38526921e-05 1.46153343e-05 1.75851328e-05 1.47697738e-05
      1.50461383e-05 1.32266150e-05 1.71545107e-05 1.76328194e-05
      1.77138172e-05 1.56023834e-05 1.68404276e-05 1.54115096e-05
      1.59715291e-05 1.32105652e-05 1.28777720e-05 1.43353327e-05
      1.74086163e-05 1.87598853e-05 1.82750937e-05 1.87023725e-05
      2.24125106e-05 2.77376985e-05 2.79315227e-05 3.15632351e-05
      3.11067670e-05 3.18557504e-05 3.16067963e-05 3.07904374e-05
      3.22276646e-05 3.27252092e-05 3.08191702e-05 2.81725479e-05
      2.91933447e-05 3.05039575e-05 3.08361596e-05 2.68349777e-05
      2.54348433e-05 2.48046417e-05 2.61301957e-05 2.32929997e-05
      2.03903855e-05 1.68266215e-05 1.13611541e-05 7.84845543e-06
      8.79229538e-06 1.08431068e-05 1.06550315e-05 9.06229343e-06
      1.17703221e-05 1.48519166e-05 1.44526593e-05 1.60189775e-05
      1.83990614e-05 2.00486229e-05 1.75594414e-05 2.16057724e-05
      2.79675787e-05 2.96467460e-05 2.81857810e-05 2.96122489e-05
      3.32410855e-05 3.63545623e-05 3.90740424e-05 3.77022661e-05
      3.20021900e-05 3.27334310e-05 3.13790733e-05 3.27152266e-05
      3.11998920e-05 3.15291218e-05 3.07252885e-05 2.77034796e-05
      3.06979418e-05 3.93452501e-05 5.59783803e-05 5.72106474e-05</_></support_vectors>
  <uncompressed_sv_total>47</uncompressed_sv_total>
  <uncompressed_support_vectors>
    <_>
      171. 171. 159. 161. 161. 164. 176. 184. 176. 171. 161. 150. 150.
      146. 148. 150. 154. 151. 157. 163. 169. 185. 195. 197. 198. 196.
      195. 206. 212. 214. 213. 204. 214. 219. 225. 230. 228. 214. 186.
      157. 149. 152. 145. 150. 148. 145. 145. 144. 157. 163. 172. 175.
      173. 166. 154. 151. 160. 170. 179. 163. 169. 158. 155. 147. 149.
      155. 173. 175. 192. 206. 220. 226. 230. 228. 228. 224. 211. 213.
      207. 213. 213. 206. 189. 187. 183. 189. 206. 214. 206. 214. 228.
      242. 249. 251. 249. 250. 249. 244. 242. 241. 239. 246. 248. 252.
      251. 250. 243. 245. 245. 249. 251. 250. 251. 250. 240. 232. 222.
      196. 180. 159. 160. 159. 151. 149. 155. 173. 191. 197. 196. 197.
      192. 191. 191. 191. 185. 165. 160. 157. 156. 154. 156. 135. 109.
      96. 183. 183. 170. 171. 169. 171. 179. 185. 187. 174. 172. 160.
      153. 158. 166. 177. 183. 193. 192. 183. 186. 182. 192. 192. 188.
      199. 199. 195. 197. 204. 205. 215. 213. 221. 212. 217. 221. 211.
      195. 168. 152. 144. 148. 143. 146. 146. 144. 149. 155. 164. 166.
      160. 156. 151. 146. 152. 166. 169. 170. 164. 162. 165. 157. 151.
      154. 159. 176. 194. 200. 205. 213. 213. 223. 232. 224. 230. 223.
      214. 204. 203. 204. 206. 192. 182. 175. 186. 197. 196. 189. 170.
      166. 174. 184. 185. 173. 165. 158. 159. 153. 152. 153. 154. 156.
      176. 217. 238. 229. 193. 165. 158. 162. 175. 170. 172. 172. 185.
      207. 208. 197. 169. 166. 158. 155. 144. 131. 128. 131. 138. 148.
      145. 137. 132. 140. 157. 170. 170. 160. 154. 147. 153. 151. 134.
      111. 96. 242. 242. 234. 236. 233. 231. 231. 232. 231. 228. 223.
      227. 226. 216. 206. 192. 198. 218. 242. 247. 245. 245. 230. 221.
      227. 228. 231. 229. 228. 231. 222. 222. 191. 156. 140. 142. 164.
      210. 238. 235. 230. 209. 205. 196. 191. 190. 200. 213. 220. 218.
      186. 142. 123. 117. 119. 135. 167. 203. 221. 219. 206. 213. 205.
      196. 195. 206. 217. 226. 192. 158. 145. 145. 161. 189. 228. 251.
      244. 245. 240. 243. 235. 233. 225. 224. 219. 220. 224. 228. 197.
      141. 107. 93. 92. 96. 88. 87. 85. 85. 85. 84. 80. 82. 83. 93. 131.
      180. 161. 110. 86. 79. 86. 86. 88. 88. 85. 96. 120. 149. 187. 207.
      193. 176. 166. 134. 100. 82. 75. 85. 89. 89. 85. 80. 84. 99. 122.
      147. 165. 168. 159. 160. 160. 141. 116. 102. 246. 247. 241. 244.
      242. 239. 235. 232. 237. 237. 235. 229. 195. 146. 120. 99. 95.
      104. 128. 158. 230. 250. 238. 233. 224. 227. 231. 220. 213. 203.
      168. 129. 101. 76. 75. 73. 77. 97. 129. 177. 225. 217. 179. 166.
      164. 171. 191. 204. 194. 141. 102. 82. 67. 66. 72. 73. 85. 123.
      157. 193. 213. 214. 204. 205. 205. 191. 155. 127. 96. 81. 74. 75.
      79. 84. 115. 166. 240. 248. 246. 234. 232. 230. 226. 226. 221.
      218. 212. 213. 172. 107. 75. 56. 49. 53. 48. 50. 50. 47. 47. 48.
      43. 44. 44. 51. 81. 131. 124. 72. 50. 46. 43. 45. 45. 47. 50. 58.
      68. 82. 117. 149. 182. 177. 164. 114. 74. 53. 40. 50. 55. 51. 47.
      42. 48. 58. 72. 97. 131. 158. 167. 159. 165. 145. 119. 108. 246.
      246. 239. 240. 239. 239. 236. 236. 235. 236. 231. 177. 121. 84.
      64. 53. 51. 56. 60. 83. 113. 182. 242. 239. 233. 230. 221. 206.
      188. 142. 103. 75. 55. 47. 36. 33. 40. 48. 67. 95. 137. 186. 167.
      146. 142. 147. 165. 172. 129. 91. 59. 44. 34. 25. 26. 36. 53. 70.
      100. 151. 203. 221. 202. 207. 184. 137. 92. 68. 54. 49. 40. 34.
      38. 53. 63. 86. 141. 224. 247. 234. 227. 223. 223. 225. 224. 220.
      206. 205. 162. 91. 55. 24. 9. 13. 13. 16. 12. 10. 2. 5. 7. 2. 2.
      28. 63. 109. 94. 58. 25. 0. 8. 9. 8. 10. 14. 20. 30. 44. 64. 90.
      137. 163. 161. 103. 61. 30. 7. 10. 17. 18. 14. 8. 16. 28. 40. 62.
      95. 136. 170. 173. 169. 147. 117. 109. 247. 248. 244. 244. 243.
      244. 241. 242. 239. 240. 190. 112. 70. 44. 28. 23. 19. 18. 23. 36.
      62. 99. 180. 248. 243. 234. 220. 191. 151. 101. 73. 46. 31. 8. 1.
      6. 10. 13. 30. 61. 89. 135. 152. 137. 130. 137. 152. 135. 91. 57.
      26. 5. 0. 9. 11. 5. 15. 33. 65. 104. 159. 216. 205. 191. 138. 84.
      55. 35. 13. 1. 2. 2. 1. 9. 27. 53. 87. 144. 231. 238. 232. 224.
      223. 225. 224. 214. 191. 190. 160. 92. 55. 19. 0. 1. 4. 5. 15. 15.
      11. 14. 16. 14. 16. 37. 68. 103. 91. 55. 16. 2. 11. 20. 29. 29.
      30. 27. 20. 20. 30. 59. 88. 136. 156. 104. 61. 27. 7. 16. 26. 30.
      30. 24. 20. 14. 17. 35. 60. 97. 148. 183. 177. 152. 122. 114. 243.
      246. 245. 245. 243. 244. 240. 241. 246. 225. 133. 78. 45. 9. 10.
      26. 37. 41. 28. 19. 31. 60. 111. 224. 248. 230. 219. 192. 128. 75.
      43. 17. 8. 19. 38. 39. 37. 23. 4. 21. 57. 91. 140. 149. 131. 132.
      135. 101. 64. 30. 6. 11. 33. 44. 39. 36. 16. 15. 34. 72. 120. 189.
      213. 165. 101. 63. 28. 4. 1. 16. 33. 34. 30. 13. 5. 20. 56. 93.
      162. 231. 221. 219. 221. 219. 220. 217. 190. 184. 165. 98. 59. 20.
      0. 0. 7. 10. 21. 33. 45. 52. 54. 57. 56. 63. 87. 122. 93. 58. 16.
      11. 42. 56. 66. 65. 64. 58. 42. 25. 13. 30. 65. 109. 148. 106. 60.
      25. 12. 37. 54. 62. 63. 63. 57. 40. 26. 22. 43. 73. 120. 175. 193.
      153. 123. 111. 244. 247. 245. 244. 241. 243. 241. 244. 244. 193.
      96. 54. 17. 13. 41. 62. 78. 75. 66. 43. 21. 36. 73. 138. 236. 232.
      217. 172. 97. 56. 22. 4. 20. 38. 62. 77. 73. 55. 30. 4. 30. 69.
      117. 145. 137. 136. 120. 80. 47. 13. 15. 45. 66. 80. 78. 63. 44.
      22. 16. 47. 83. 146. 215. 140. 81. 48. 2. 0. 29. 50. 62. 70. 58.
      48. 25. 7. 28. 67. 119. 206. 219. 209. 212. 219. 222. 211. 183.
      185. 172. 103. 60. 23. 5. 1. 5. 5. 22. 51. 74. 89. 98. 96. 91.
      107. 132. 143. 93. 56. 19. 22. 56. 83. 114. 114. 108. 90. 69. 48.
      16. 14. 49. 81. 135. 106. 61. 25. 16. 52. 80. 104. 106. 93. 81.
      67. 48. 25. 24. 53. 92. 150. 206. 153. 125. 111. 240. 243. 243.
      241. 237. 236. 238. 245. 246. 149. 79. 40. 11. 35. 66. 103. 133.
      139. 107. 72. 44. 26. 52. 91. 183. 233. 220. 148. 84. 42. 2. 6.
      37. 59. 94. 135. 128. 85. 55. 25. 21. 56. 90. 136. 150. 134. 108.
      71. 36. 4. 35. 71. 106. 134. 132. 100. 70. 43. 17. 31. 66. 119.
      217. 132. 73. 32. 0. 17. 53. 81. 111. 118. 95. 74. 47. 19. 11. 49.
      89. 158. 222. 205. 213. 222. 226. 210. 190. 186. 169. 108. 64. 26.
      2. 13. 17. 22. 40. 68. 114. 172. 197. 176. 166. 165. 193. 176.
      100. 57. 21. 23. 64. 117. 205. 204. 176. 140. 94. 63. 32. 6. 32.
      72. 119. 106. 61. 18. 16. 56. 100. 162. 159. 139. 126. 93. 67. 40.
      14. 42. 78. 138. 217. 168. 123. 110. 241. 243. 245. 243. 240. 240.
      242. 248. 243. 136. 73. 33. 17. 53. 98. 175. 227. 217. 179. 110.
      60. 31. 36. 70. 134. 222. 214. 128. 72. 33. 0. 18. 56. 88. 148.
      217. 219. 130. 79. 48. 26. 49. 81. 127. 160. 144. 113. 70. 41. 30.
      57. 88. 146. 192. 184. 152. 102. 61. 26. 16. 53. 95. 171. 130. 71.
      37. 12. 43. 73. 128. 185. 185. 158. 111. 69. 35. 3. 35. 75. 136.
      216. 206. 211. 220. 225. 214. 197. 190. 180. 114. 65. 24. 2. 24.
      37. 50. 64. 99. 156. 226. 237. 233. 224. 213. 218. 205. 114. 62.
      26. 25. 65. 123. 231. 238. 225. 205. 129. 76. 40. 6. 31. 66. 112.
      104. 60. 16. 18. 60. 111. 181. 185. 158. 151. 127. 82. 44. 15. 32.
      68. 129. 213. 171. 125. 115. 243. 245. 248. 246. 245. 246. 247.
      251. 242. 130. 68. 27. 25. 67. 127. 236. 231. 228. 220. 144. 77.
      42. 25. 59. 103. 202. 203. 114. 65. 26. 0. 36. 70. 125. 214. 230.
      239. 194. 98. 57. 34. 41. 73. 119. 172. 161. 129. 87. 69. 58. 83.
      122. 172. 184. 179. 192. 134. 78. 42. 11. 47. 81. 133. 133. 90.
      61. 52. 71. 107. 174. 227. 212. 203. 148. 86. 52. 8. 26. 66. 125.
      222. 219. 216. 219. 221. 216. 203. 198. 187. 119. 67. 28. 3. 32.
      53. 81. 111. 149. 226. 237. 238. 226. 227. 220. 225. 220. 119. 61.
      25. 23. 65. 125. 241. 243. 231. 229. 145. 82. 43. 4. 29. 68. 115.
      104. 59. 20. 23. 59. 112. 190. 188. 170. 183. 149. 87. 52. 12. 27.
      66. 125. 212. 176. 128. 117. 247. 246. 251. 247. 248. 250. 250.
      251. 244. 138. 70. 30. 30. 69. 133. 245. 240. 233. 232. 159. 83.
      51. 20. 51. 92. 172. 199. 114. 63. 23. 1. 44. 87. 155. 232. 237.
      248. 230. 114. 67. 33. 32. 67. 112. 176. 176. 153. 127. 100. 105.
      123. 145. 172. 178. 184. 199. 143. 79. 42. 5. 39. 71. 118. 141.
      126. 96. 91. 108. 148. 224. 222. 222. 228. 165. 89. 54. 6. 21. 65.
      124. 225. 223. 213. 212. 211. 211. 206. 204. 194. 121. 68. 30. 4.
      40. 74. 119. 175. 231. 240. 240. 236. 237. 229. 231. 228. 230.
      129. 69. 30. 23. 65. 118. 242. 252. 237. 219. 130. 70. 36. 8. 36.
      74. 125. 107. 60. 26. 23. 59. 109. 192. 195. 191. 192. 132. 73.
      44. 8. 34. 71. 128. 213. 178. 130. 119. 248. 244. 252. 247. 249.
      250. 250. 250. 247. 147. 76. 36. 27. 64. 123. 234. 231. 233. 242.
      185. 90. 49. 13. 45. 79. 150. 213. 127. 68. 32. 5. 43. 81. 167.
      233. 239. 252. 246. 129. 63. 26. 20. 59. 105. 170. 184. 170. 164.
      161. 166. 170. 176. 177. 176. 186. 181. 126. 73. 34. 11. 44. 74.
      127. 160. 177. 175. 160. 176. 207. 217. 221. 219. 212. 140. 80.
      44. 0. 28. 69. 125. 226. 219. 205. 206. 206. 207. 202. 200. 191.
      123. 70. 32. 7. 43. 77. 117. 144. 148. 145. 152. 168. 198. 224.
      230. 227. 227. 131. 72. 31. 18. 54. 91. 141. 154. 141. 123. 83.
      53. 22. 4. 47. 78. 132. 111. 64. 28. 16. 57. 82. 130. 133. 130.
      120. 86. 61. 32. 10. 44. 77. 138. 213. 174. 129. 120. 245. 240.
      252. 246. 246. 245. 245. 246. 251. 158. 83. 41. 19. 56. 106. 226.
      243. 238. 238. 197. 98. 55. 14. 35. 75. 140. 227. 147. 79. 41. 5.
      44. 85. 159. 239. 235. 250. 251. 137. 72. 27. 14. 54. 98. 161.
      185. 173. 177. 182. 189. 185. 178. 171. 179. 178. 141. 88. 53. 18.
      18. 56. 91. 153. 188. 204. 213. 203. 208. 203. 205. 197. 197. 158.
      97. 64. 26. 5. 39. 71. 137. 219. 206. 198. 202. 205. 205. 198.
      191. 183. 123. 71. 33. 9. 38. 57. 74. 76. 73. 84. 82. 79. 111.
      147. 222. 230. 223. 133. 74. 35. 15. 39. 58. 72. 81. 77. 67. 50.
      28. 10. 24. 55. 92. 143. 113. 68. 33. 10. 38. 57. 71. 75. 73. 70.
      56. 31. 10. 22. 57. 94. 159. 212. 169. 125. 117. 240. 235. 251.
      245. 241. 236. 237. 241. 251. 176. 87. 45. 15. 49. 94. 215. 247.
      241. 241. 205. 103. 54. 13. 29. 73. 132. 234. 172. 85. 45. 3. 40.
      80. 157. 239. 233. 245. 251. 152. 73. 34. 11. 53. 92. 154. 183.
      172. 179. 185. 179. 169. 168. 170. 170. 141. 93. 60. 33. 14. 35.
      74. 127. 192. 208. 186. 180. 172. 168. 178. 187. 182. 156. 111.
      70. 39. 9. 20. 52. 89. 157. 197. 184. 188. 193. 197. 199. 195.
      190. 183. 124. 70. 32. 8. 25. 35. 37. 40. 39. 38. 47. 46. 68. 105.
      171. 219. 215. 134. 73. 38. 5. 15. 23. 34. 36. 36. 31. 21. 12. 18.
      51. 80. 124. 157. 113. 69. 36. 6. 15. 29. 36. 39. 35. 34. 21. 8.
      17. 46. 81. 126. 182. 200. 161. 123. 113. 237. 233. 252. 245. 238.
      229. 231. 237. 247. 193. 87. 48. 17. 47. 90. 204. 254. 240. 238.
      204. 107. 59. 18. 27. 67. 128. 244. 196. 88. 50. 9. 37. 80. 149.
      234. 235. 244. 254. 160. 79. 37. 9. 52. 87. 152. 183. 175. 183.
      184. 176. 171. 171. 168. 147. 101. 66. 35. 12. 20. 58. 92. 156.
      208. 190. 181. 167. 164. 166. 170. 173. 149. 117. 75. 43. 12. 10.
      46. 77. 129. 176. 185. 174. 186. 187. 187. 191. 193. 191. 184.
      124. 72. 37. 10. 10. 11. 7. 3. 7. 6. 4. 21. 52. 90. 147. 196. 200.
      131. 72. 41. 0. 2. 8. 8. 12. 11. 6. 6. 28. 51. 77. 114. 153. 164.
      112. 67. 32. 4. 6. 12. 15. 10. 5. 2. 2. 20. 43. 71. 104. 154. 192.
      181. 152. 124. 113. 237. 230. 255. 246. 235. 236. 235. 236. 244.
      199. 96. 52. 20. 43. 88. 190. 254. 241. 232. 214. 117. 59. 25. 21.
      63. 124. 241. 212. 94. 50. 7. 36. 76. 143. 236. 232. 245. 253.
      160. 82. 39. 10. 46. 88. 149. 190. 170. 186. 184. 179. 178. 175.
      152. 112. 71. 42. 9. 11. 46. 79. 128. 191. 192. 175. 168. 161.
      172. 171. 171. 161. 122. 80. 48. 18. 11. 43. 68. 112. 158. 184.
      178. 183. 184. 177. 183. 185. 190. 191. 192. 124. 73. 40. 9. 20.
      32. 37. 34. 35. 34. 35. 41. 60. 98. 143. 177. 182. 135. 72. 40. 5.
      19. 37. 46. 45. 34. 19. 12. 45. 76. 120. 160. 179. 164. 110. 62.
      28. 10. 24. 40. 47. 39. 23. 4. 4. 40. 68. 107. 143. 170. 178. 169.
      149. 119. 115. 236. 228. 255. 244. 235. 242. 242. 241. 246. 202.
      98. 56. 19. 42. 80. 172. 254. 249. 233. 226. 124. 67. 28. 18. 60.
      114. 235. 220. 94. 53. 12. 34. 78. 136. 231. 236. 237. 245. 155.
      80. 43. 21. 53. 86. 149. 194. 174. 184. 185. 184. 183. 174. 127.
      76. 48. 16. 7. 37. 66. 105. 159. 191. 178. 166. 163. 168. 177.
      183. 180. 133. 86. 55. 23. 12. 35. 69. 109. 147. 184. 177. 175.
      185. 185. 173. 177. 186. 195. 197. 198. 129. 72. 32. 14. 43. 61.
      71. 73. 71. 70. 68. 74. 91. 120. 152. 167. 175. 131. 74. 39. 9.
      37. 61. 85. 75. 58. 33. 19. 48. 80. 147. 204. 189. 165. 108. 65.
      25. 7. 42. 64. 76. 67. 47. 20. 10. 47. 83. 140. 183. 171. 172.
      165. 151. 123. 116. 229. 218. 253. 241. 235. 241. 242. 240. 247.
      216. 103. 59. 20. 35. 81. 155. 254. 247. 235. 228. 129. 70. 31.
      14. 56. 104. 225. 226. 102. 56. 18. 33. 74. 134. 235. 231. 232.
      239. 149. 85. 44. 27. 57. 98. 171. 206. 185. 189. 189. 194. 176.
      128. 86. 55. 22. 3. 29. 57. 92. 141. 174. 177. 168. 172. 171. 176.
      190. 182. 147. 97. 61. 26. 11. 37. 71. 101. 155. 200. 190. 186.
      185. 191. 192. 185. 187. 189. 198. 206. 204. 131. 75. 38. 22. 54.
      84. 127. 127. 123. 123. 120. 119. 128. 145. 161. 165. 178. 132.
      77. 38. 12. 50. 84. 134. 133. 87. 52. 22. 40. 76. 135. 207. 197.
      160. 104. 61. 24. 12. 56. 89. 127. 101. 62. 32. 13. 43. 81. 140.
      200. 173. 170. 169. 151. 124. 117. 217. 203. 252. 246. 242. 242.
      242. 245. 246. 230. 113. 58. 20. 29. 77. 142. 255. 244. 239. 244.
      137. 76. 31. 17. 52. 95. 213. 230. 112. 57. 19. 30. 71. 130. 229.
      235. 238. 233. 152. 80. 46. 28. 54. 103. 191. 221. 201. 197. 198.
      189. 148. 91. 57. 25. 6. 27. 56. 85. 127. 157. 167. 178. 183. 191.
      198. 198. 199. 160. 107. 67. 36. 21. 29. 59. 94. 158. 215. 206.
      191. 192. 199. 198. 195. 195. 197. 196. 202. 214. 215. 133. 73.
      37. 23. 62. 120. 213. 221. 200. 188. 176. 166. 157. 156. 156. 170.
      190. 138. 79. 38. 12. 52. 91. 181. 215. 116. 66. 35. 26. 55. 103.
      174. 202. 155. 106. 58. 25. 18. 57. 104. 174. 138. 81. 53. 20. 29.
      68. 110. 180. 187. 178. 184. 161. 127. 121. 192. 182. 253. 251.
      250. 247. 248. 250. 251. 241. 125. 62. 24. 29. 65. 134. 254. 251.
      249. 245. 144. 75. 38. 10. 50. 89. 205. 242. 119. 62. 23. 21. 65.
      115. 231. 246. 237. 243. 157. 82. 41. 19. 51. 95. 195. 237. 211.
      196. 196. 160. 104. 69. 32. 1. 19. 49. 81. 119. 146. 161. 176.
      193. 199. 212. 219. 226. 182. 115. 75. 43. 10. 25. 56. 88. 150.
      228. 225. 203. 197. 202. 204. 205. 204. 207. 212. 212. 210. 214.
      213. 135. 76. 39. 25. 63. 117. 220. 223. 213. 220. 215. 191. 159.
      150. 152. 170. 197. 141. 79. 42. 14. 49. 91. 187. 235. 146. 84.
      48. 21. 44. 79. 135. 188. 155. 105. 61. 25. 18. 58. 103. 185. 170.
      107. 69. 29. 12. 48. 87. 151. 203. 185. 195. 171. 130. 123. 164.
      164. 255. 252. 252. 251. 251. 251. 254. 251. 130. 70. 29. 19. 56.
      117. 244. 255. 249. 250. 157. 75. 36. 6. 50. 88. 206. 253. 128.
      69. 28. 8. 49. 88. 194. 250. 251. 240. 139. 80. 35. 7. 49. 88.
      193. 243. 218. 200. 172. 123. 71. 36. 11. 15. 51. 79. 118. 148.
      153. 167. 190. 205. 215. 226. 230. 202. 133. 77. 42. 15. 14. 42.
      79. 129. 214. 230. 226. 218. 216. 215. 212. 214. 214. 220. 223.
      220. 212. 212. 213. 137. 76. 39. 26. 64. 115. 221. 231. 214. 219.
      220. 204. 171. 157. 156. 167. 193. 141. 80. 47. 17. 48. 89. 184.
      242. 199. 110. 60. 27. 29. 57. 99. 161. 169. 107. 65. 24. 13. 58.
      101. 183. 202. 137. 80. 46. 13. 31. 70. 125. 205. 196. 199. 175.
      131. 122. 147. 152. 255. 254. 255. 253. 254. 252. 253. 254. 161.
      79. 39. 10. 44. 84. 180. 253. 252. 227. 120. 69. 28. 15. 55. 102.
      220. 253. 151. 79. 39. 5. 35. 69. 116. 205. 232. 183. 110. 64. 33.
      13. 53. 96. 194. 235. 226. 195. 134. 84. 50. 14. 8. 39. 71. 116.
      144. 157. 151. 152. 166. 189. 209. 219. 205. 132. 80. 52. 17. 0.
      33. 69. 111. 162. 191. 203. 216. 216. 210. 212. 213. 217. 216.
      220. 220. 219. 213. 215. 208. 137. 78. 42. 25. 59. 110. 220. 226.
      213. 220. 220. 209. 177. 161. 157. 163. 183. 140. 82. 49. 16. 46.
      85. 164. 248. 226. 135. 79. 44. 15. 44. 74. 132. 178. 114. 66. 25.
      10. 55. 96. 184. 216. 165. 97. 59. 23. 14. 55. 99. 178. 211. 206.
      178. 132. 125. 138. 141. 253. 254. 255. 251. 253. 255. 255. 253.
      214. 94. 56. 18. 31. 58. 92. 130. 135. 106. 77. 46. 22. 30. 69.
      127. 244. 253. 183. 93. 55. 19. 7. 42. 71. 96. 116. 98. 70. 44.
      20. 30. 69. 118. 206. 228. 227. 164. 99. 56. 27. 3. 15. 53. 78.
      108. 119. 110. 103. 98. 101. 120. 141. 177. 141. 85. 56. 20. 2. 3.
      41. 71. 105. 116. 118. 122. 122. 123. 134. 152. 191. 211. 220.
      223. 223. 228. 220. 213. 197. 135. 80. 42. 22. 56. 107. 213. 228.
      215. 219. 218. 214. 190. 175. 168. 160. 172. 138. 83. 48. 13. 45.
      81. 156. 239. 238. 191. 103. 62. 23. 20. 57. 101. 161. 115. 63.
      25. 9. 57. 97. 192. 220. 195. 130. 72. 36. 11. 43. 77. 138. 216.
      211. 178. 130. 124. 129. 131. 252. 254. 254. 253. 251. 255. 251.
      255. 240. 135. 77. 41. 20. 32. 53. 64. 71. 61. 40. 25. 25. 51. 88.
      178. 251. 247. 221. 129. 73. 38. 6. 13. 36. 54. 60. 57. 41. 23.
      24. 54. 84. 142. 212. 222. 223. 142. 80. 44. 6. 3. 18. 42. 57. 68.
      68. 62. 59. 57. 58. 67. 93. 129. 108. 64. 30. 0. 1. 4. 35. 57. 67.
      69. 66. 65. 68. 67. 79. 102. 146. 203. 213. 220. 221. 230. 219.
      204. 191. 137. 81. 43. 16. 55. 95. 198. 230. 213. 218. 222. 212.
      197. 176. 166. 160. 165. 135. 80. 51. 11. 38. 77. 143. 237. 236.
      223. 135. 75. 36. 5. 42. 80. 133. 118. 62. 25. 13. 55. 104. 196.
      219. 207. 144. 85. 48. 17. 27. 65. 113. 190. 225. 183. 131. 125.
      113. 128. 244. 252. 255. 254. 252. 251. 250. 254. 255. 204. 113.
      71. 37. 18. 16. 27. 25. 25. 14. 20. 42. 79. 139. 240. 251. 244.
      229. 170. 107. 67. 41. 10. 3. 15. 22. 19. 16. 22. 47. 70. 120.
      184. 223. 221. 222. 133. 73. 34. 0. 0. 7. 18. 22. 27. 25. 26. 24.
      17. 21. 40. 68. 97. 89. 48. 14. 0. 1. 2. 13. 31. 36. 35. 31. 30.
      31. 30. 45. 71. 125. 190. 213. 222. 224. 222. 213. 197. 191. 139.
      83. 45. 19. 50. 90. 190. 231. 212. 214. 220. 218. 204. 179. 166.
      165. 172. 140. 83. 45. 11. 35. 78. 145. 231. 230. 233. 158. 85.
      51. 19. 33. 64. 115. 113. 67. 32. 21. 59. 109. 199. 220. 205. 167.
      105. 60. 27. 20. 50. 92. 168. 228. 190. 132. 123. 99. 119. 228.
